{"updated_bias": 65.29434632226139, "feature_weights": {"commencing": -0.999998042558689, "othersxl": 0.999998042558689, "hauch": 0.999998042558689, "htmfont": 1.999996085117378, "624": 9.99998042558689, "lvcdu": 0.999998042558689, "synergy": -1.999996085117378, "asparagine": 0.999998042558689, "mtl": 0.999998042558689, "out": 128.9997474900709, "zfwdrycqj": 3.999992170234756, "gielda": -7.999984340469512, "certification": 67.99986689399086, "rmvol": 1.999996085117378, "worries": 1.999996085117378, "syoung": -4.999990212793445, "issuance": -5.999988255352134, "convey": 2.999994127676067, "positioned": 23.999953021408537, "doubleday": 0.999998042558689, "kcalder": 0.999998042558689, "magnifykindred": 0.999998042558689, "mmbtu": -102.99979838354497, "gals": 16.999966723497714, "frivolous": 5.999988255352134, "sabbatical": -24.999951063967224, "au": 9.99998042558689, "beneficial": -4.999990212793445, "baughman": -1.999996085117378, "dahlia": 0.999998042558689, "300457": 0.999998042558689, "oscair": 6.999986297910823, "ylsmuv": 0.999998042558689, "attribution": 3.999992170234756, "vigor": 0.999998042558689, "sawdust": -0.999998042558689, "vym": 1.999996085117378, "ramped": -0.999998042558689, "enlightenment": -3.999992170234756, "634": 0.999998042558689, "rocketing": 0.0, "philip": -0.999998042558689, "norwenger": 0.999998042558689, "loss": 33.99993344699543, "200000": -1.999996085117378, "unprotected": -0.999998042558689, "appetite": 13.999972595821646, "evidently": 0.999998042558689, "wkccp": 0.999998042558689, "spectroscopy": 0.999998042558689, "unwarranted": 8.9999823830282, "qlrnqtr": 0.999998042558689, "andstorage": 0.999998042558689, "dopson": -0.999998042558689, "notesmail": -0.999998042558689, "continual": 10.99997846814558, "suckfest": -1.999996085117378, "chemist": 16.999966723497714, "traipse": 0.999998042558689, "reveal": 3.999992170234756, "additiona": 16.999966723497714, "plagiary": 0.999998042558689, "wally": -0.999998042558689, "liquefy": 1.999996085117378, "cassia": 0.999998042558689, "jive": 0.999998042558689, "dirge": 2.999994127676067, "zeit": 2.999994127676067, "iceland": 0.999998042558689, "eminent": 3.999992170234756, "instrumentow": -4.999990212793445, "sgt": 0.999998042558689, "gendermail": 0.999998042558689, "assiduous": 2.999994127676067, "gml": 2.999994127676067, "troglodyte": 0.999998042558689, "frogs": 0.999998042558689, "forwarded": -199.9996085117378, "competencies": -2.999994127676067, "mccullough": 1.999996085117378, "ingredient": 11.999976510704268, "65": -20.99995889373247, "downtown": -19.99996085117378, "glfyjvuj": 2.999994127676067, "oinrgxug": 3.999992170234756, "yawoourwayr": 0.999998042558689, "transmitter": 1.999996085117378, "strongest": 4.999990212793445, "dbymbh": 2.999994127676067, "enymex": -0.999998042558689, "tftd": 0.999998042558689, "insight": -18.99996280861509, "cromwell": 2.999994127676067, "duit": 6.999986297910823, "earmarked": 0.999998042558689, "google": 87.99982774516464, "integriertes": 0.999998042558689, "embarrssed": -0.999998042558689, "sponsorship": 29.99994127676067, "05215": 1.999996085117378, "geschdftskunden": 7.999984340469512, "cherubim": 4.999990212793445, "dragonfly": 1.999996085117378, "refrigerate": 2.999994127676067, "wheelchair": 1.999996085117378, "hears": 3.999992170234756, "texoma": -4.999990212793445, "simplify": -16.999966723497714, "plant": -73.99985514934299, "basidiomycetes": 1.999996085117378, "loraleigh": -2.999994127676067, "nw": 7.999984340469512, "snapdragon": 0.999998042558689, "unashamed": 3.999992170234756, "hntql": 0.999998042558689, "garbage": 1.999996085117378, "wythjmrseh": 0.999998042558689, "dsfsdfdsfdgffd": 0.999998042558689, "areaway": 1.999996085117378, "roger": 5.999988255352134, "6207": -1.999996085117378, "leff": -0.999998042558689, "cbmqhb": 1.999996085117378, "azhlokr": 3.999992170234756, "gelling": 0.999998042558689, "earners": 0.999998042558689, "chics": 0.999998042558689, "pease": 1.999996085117378, "listen": 1.999996085117378, "vis?o": 0.999998042558689, "troll": 0.999998042558689, "discernible": 1.999996085117378, "another": -17.9999647660564, "settling": -3.999992170234756, "odessa": 1.999996085117378, "theory": -13.999972595821646, "dziewczyn": -3.999992170234756, "hurosot": 1.999996085117378, "axisymmetric": 2.999994127676067, "sizobonana": 0.999998042558689, "nomina": 0.999998042558689, "nje": 0.999998042558689, "twcnka": 1.999996085117378, "kksclj": 0.999998042558689, "asian": -27.99994519164329, "olcese": -0.999998042558689, "tidbits": -0.999998042558689, "barryrobinhoo": 0.999998042558689, "memoryhorizon": 0.999998042558689, "cdnow": -147.99971029868598, "perish": 0.999998042558689, "qbye": 0.999998042558689, "oracular": 0.999998042558689, "operator": -16.999966723497714, "fx": 9.99998042558689, "amaze": 0.999998042558689, "svytc": 0.999998042558689, "ieince": 0.999998042558689, "model": -219.9995693629116, "mogliby": -4.999990212793445, "dhbnxtuy": 0.999998042558689, "mc": -6.999986297910823, "mildness": 14.999970638380335, "gratify": 3.999992170234756, "functionaries": 0.999998042558689, "445": 0.999998042558689, "rkbuh": 2.999994127676067, "addie": 1.999996085117378, "finds": 6.999986297910823, "ibank": 27.99994519164329, "luu": -0.999998042558689, "xan": 5.999988255352134, "tvasut": -3.999992170234756, "grafics": 0.999998042558689, "arabesque": 0.999998042558689, "skeptic": 1.999996085117378, "8394": -1.999996085117378, "dmc": 15.999968680939023, "platoon": 0.999998042558689, "byrd": 1.999996085117378, "exceptions": -2.999994127676067, "oxxl": 1.999996085117378, "shelding": 3.999992170234756, "pixel": 2.999994127676067, "zlqul": 0.999998042558689, "hospital": 46.99990800025838, "managed": 30.99993931931936, "erwin": 0.999998042558689, "debbie": -11.999976510704268, "angrier": 0.999998042558689, "sharon": -5.999988255352134, "last": -22.999954978849846, "grenade": 5.999988255352134, "teeterer": 1.999996085117378, "fishing": 1.999996085117378, "charactered": 0.999998042558689, "\u0005": -4.999990212793445, "wmy": 0.999998042558689, "insomnia": 0.999998042558689, "usr": 4.999990212793445, "plansnow": -1.999996085117378, "2466": 1.999996085117378, "rightly": 0.999998042558689, "pipsissewa": 1.999996085117378, "cap": 1.999996085117378, "dilemmas": -1.999996085117378, "chalet": 0.999998042558689, "military": 54.9998923407279, "representation": 11.999976510704268, "flouting": -0.999998042558689, "specifying": -0.999998042558689, "hey": -26.9999471490846, "congresswoman": 2.999994127676067, "advocate": -0.999998042558689, "deriv": -0.999998042558689, "raises": 5.999988255352134, "destiny": 9.99998042558689, "seller": -48.99990408537576, "calendar": -63.99987472375609, "ccheck": 0.999998042558689, "pelt": 0.999998042558689, "levitate": 0.999998042558689, "mz": 1.999996085117378, "dazu": 1.999996085117378, "147866": -0.999998042558689, "occur": 23.999953021408537, "followeth": 0.999998042558689, "absurd": 4.999990212793445, "sib": 2.999994127676067, "iberica": 0.999998042558689, "augean": 6.999986297910823, "cwtkz": 0.999998042558689, "30": -190.9996261287096, "lodowick": 0.999998042558689, "mxx": 0.999998042558689, "iqucas": 0.999998042558689, "uohegzjx": 0.999998042558689, "yemg": 0.999998042558689, "tzjngyrtx": 3.999992170234756, "blockbusters": 2.999994127676067, "dated": -1.999996085117378, "surprisingly": 9.99998042558689, "chapin": 0.999998042558689, "flw": 2.999994127676067, "cactieveryone": 0.999998042558689, "sincerity": 7.999984340469512, "abouthis": 3.999992170234756, "vlagro": 1.999996085117378, "gibson": 4.999990212793445, "xomziza": 0.999998042558689, "koszta": -6.999986297910823, "optimise": -0.999998042558689, "thyme": 0.999998042558689, "tkig": 0.999998042558689, "researches": -1.999996085117378, "bom": -6.999986297910823, "wqmff": 0.999998042558689, "lausannewhit": 0.999998042558689, "unsub": 11.999976510704268, "133169": -0.999998042558689, "protocols": 0.0, "955705131": 0.999998042558689, "specialisation": 0.999998042558689, "kooymxew": 1.999996085117378, "quarkxpress": 0.999998042558689, "nedlz": 0.999998042558689, "belies": 2.999994127676067, "holy": 2.999994127676067, "buddy": -23.999953021408537, "summer": -103.99979642610366, "scornful": 0.999998042558689, "pracujemy": -0.999998042558689, "daoine": 6.999986297910823, "retrovir": 6.999986297910823, "tfxd": 0.999998042558689, "tawny": 1.999996085117378, "tdtrtd": 5.999988255352134, "epitaph": 1.999996085117378, "kindle": 2.999994127676067, "paperwork": -5.999988255352134, "inertance": 1.999996085117378, "arial": 66.99986885143217, "tayana": 3.999992170234756, "creed": 4.999990212793445, "gir": 0.999998042558689, "latest": -26.9999471490846, "despot": 2.999994127676067, "brnot": 0.999998042558689, "objection": 1.999996085117378, "fastclus": -1.999996085117378, "homecomings": -3.999992170234756, "uxgnst": 1.999996085117378, "lure": -8.9999823830282, "neal": -30.99993931931936, "amok": 0.999998042558689, "observatory": 0.0, "levels": 0.0, "opportunity": 10.99997846814558, "heels": 4.999990212793445, "bouncerl": 1.999996085117378, "abspielt": 0.999998042558689, "888": 47.999906042817074, "panelists": 6.999986297910823, "pgf": 1.999996085117378, "agrxunubr": 0.999998042558689, "bmany": 0.999998042558689, "xxm": 0.999998042558689, "ine": 8.9999823830282, "lytjjje": 0.999998042558689, "whouly": -2.999994127676067, "mergers": -3.999992170234756, "torin": 3.999992170234756, "contest": 19.99996085117378, "culminating": -1.999996085117378, "ilzpcvjtmsuimvoljw": 1.999996085117378, "mild": 3.999992170234756, "lsoe": 2.999994127676067, "ebay": 105.99979251122103, "bungalow": 1.999996085117378, "geochemical": 6.999986297910823, "phoebe": 2.999994127676067, "telecoms": 2.999994127676067, "anna": -8.9999823830282, "bas\u00fdn\u00fdz": 0.999998042558689, "plavix": 6.999986297910823, "headboard": 0.999998042558689, "guestbook": 0.999998042558689, "bangs": 3.999992170234756, "report": 75.99985123446037, "dispatches": -0.999998042558689, "gem": 15.999968680939023, "delegates": 19.99996085117378, "chocolate": -6.999986297910823, "jdzakbu": 2.999994127676067, "vyxmiqzm": 1.999996085117378, "fighter": 0.999998042558689, "5150": 1.999996085117378, "churchmagnum": 0.999998042558689, "pre?o": 1.999996085117378, "axybrpjq": 2.999994127676067, "linuxnews": 10.99997846814558, "burton": -2.999994127676067, "isi": -15.999968680939023, "yourmonthly": 1.999996085117378, "hernandez": -3.999992170234756, "moth": 0.999998042558689, "stature": 1.999996085117378, "theorvetically": 3.999992170234756, "thread": 2.999994127676067, "care": -9.99998042558689, "klcuux": 0.999998042558689, "delegate": 1.999996085117378, "powerfultools": 0.999998042558689, "flareboard": 1.999996085117378, "cpillc": 6.999986297910823, "juest": 4.999990212793445, "ydybr": 0.999998042558689, "biofont": 0.999998042558689, "transferring": 8.9999823830282, "bypass": 5.999988255352134, "displayed": -14.999970638380335, "froze": 0.999998042558689, "dateizfun": 3.999992170234756, "exploring": -10.99997846814558, "126336": -0.999998042558689, "grandchildren": 5.999988255352134, "shine": 4.999990212793445, "refurbished": 5.999988255352134, "societies": 12.999974553262957, "yxax": 0.999998042558689, "ouellette": 2.999994127676067, "hlp": 0.999998042558689, "zfmuhlpimg": 1.999996085117378, "bul": 7.999984340469512, "orga": 0.999998042558689, "?c": 1.999996085117378, "towers": -3.999992170234756, "magnesium": 1.999996085117378, "deirdre": 4.999990212793445, "sorin": -0.999998042558689, "dmitri": 1.999996085117378, "buffoon": 3.999992170234756, "fruitful": 1.999996085117378, "uprzejmie": -12.999974553262957, "mellifluous": 0.999998042558689, "sweating": -2.999994127676067, "grab": -16.999966723497714, "facials": 0.999998042558689, "oesxpzuf": 1.999996085117378, "sirs": 2.999994127676067, "estimation": -24.999951063967224, "seqmscilu": 2.999994127676067, "extra": 83.99983557492988, "gue": 0.999998042558689, "5255": -0.999998042558689, "b?fore": 0.999998042558689, "irma": 0.999998042558689, "puf": -1.999996085117378, "851": 3.999992170234756, "\u0006": -57.999886468403965, "guaaraantees": 8.9999823830282, "terabytes": -0.999998042558689, "perfection": -49.99990212793445, "088": -12.999974553262957, "8318": -2.999994127676067, "1919": 0.999998042558689, "turban": 1.999996085117378, "sharuk": 6.999986297910823, "addul": 4.999990212793445, "2171": 0.0, "quess": -0.999998042558689, "sukaly": -2.999994127676067, "ksxofk": 0.999998042558689, "37228": 2.999994127676067, "amalgam": 1.999996085117378, "espouse": 1.999996085117378, "patch": -12.999974553262957, "triumph": 13.999972595821646, "drugstorepotash": 0.999998042558689, "psuedo": -0.999998042558689, "milledmitigation": 3.999992170234756, "valuations": -2.999994127676067, "swamped": -0.999998042558689, "stirrup": 1.999996085117378, "marital": 0.999998042558689, "hellol": 0.999998042558689, "1535": 2.999994127676067, "ssn": -1.999996085117378, "tranny": -1.999996085117378, "crm": 1.999996085117378, "vivace": 1.999996085117378, "radios": -1.999996085117378, "rpixuf": 0.999998042558689, "senhas": 0.999998042558689, "responsehe": 0.999998042558689, "lottrey": 0.999998042558689, "tai": 1.999996085117378, "mak": -15.999968680939023, "egyptian": 7.999984340469512, "paratroop": 0.999998042558689, "qm": 0.999998042558689, "matilda": 6.999986297910823, "arge": 10.99997846814558, "asunder": 0.999998042558689, "notional": -0.999998042558689, "tdtd": 15.999968680939023, "680210": -0.999998042558689, "layoffs": 0.0, "match": -51.99989821305183, "sfoxtkvr": 1.999996085117378, "455": 2.999994127676067, "phenatermtine": 3.999992170234756, "covetousness": 0.999998042558689, "chilnet": 0.999998042558689, "coates": 0.999998042558689, "kraju": -4.999990212793445, "soapstone": 0.999998042558689, "scary": -3.999992170234756, "dvl": 0.999998042558689, "relay": 28.999943234201982, "sales": 83.99983557492988, "nosebleed": 1.999996085117378, "woodruff": 0.999998042558689, "cv": -11.999976510704268, "zerit": 6.999986297910823, "assignee": 1.999996085117378, "32342055": 0.999998042558689, "otswkuk": 1.999996085117378, "involvement": 12.999974553262957, "pedroza": -0.999998042558689, "ipex": 0.999998042558689, "verlaeger": -0.999998042558689, "secretarial": 0.999998042558689, "focus": 15.999968680939023, "jpamt": 0.999998042558689, "icodln": 0.999998042558689, "ht": 4.999990212793445, "accent": 2.999994127676067, "akk": 1.999996085117378, "maladroit": 3.999992170234756, "bucolicsimilitude": 1.999996085117378, "simulated": 10.99997846814558, "mathematically": -0.999998042558689, "aerofoam": 10.99997846814558, "portugal": 15.999968680939023, "ebitda": -0.999998042558689, "pigeonberry": 0.999998042558689, "toolbar": -25.999949106525914, "voice": -32.999935404436734, "aiming": 16.999966723497714, "catalogs": 2.999994127676067, "lydia": 0.999998042558689, "butyric": 2.999994127676067, "webisitefound": 0.999998042558689, "charitygofish": 0.999998042558689, "guei": 15.999968680939023, "sqnc": 6.999986297910823, "incompetent": 1.999996085117378, "xo": 0.999998042558689, "brunin": -0.999998042558689, "retaifl": 0.999998042558689, "smoke": 38.99992365978887, "beatnik": 2.999994127676067, "phamra": 2.999994127676067, "detonated": 10.99997846814558, "mediocrity": 2.999994127676067, "008002": 0.999998042558689, "gifts": -4.999990212793445, "chainman": 0.999998042558689, "ldupnn": 0.999998042558689, "rejection": 5.999988255352134, "hammond": 0.999998042558689, "7267": -4.999990212793445, "exercise": 30.99993931931936, "cfillye": 1.999996085117378, "disappointing": -1.999996085117378, "nikolayich": 0.999998042558689, "sport": 14.999970638380335, "spiegelhauer": -1.999996085117378, "unbelievers": 13.999972595821646, "1827": 13.999972595821646, "outsourced": 0.999998042558689, "osha": 0.999998042558689, "exert": 1.999996085117378, "exporter": 3.999992170234756, "tracked": -32.999935404436734, "style": 98.99980621331021, "reap": 1.999996085117378, "nch": -0.999998042558689, "drawn": 4.999990212793445, "yzecrdym": 0.999998042558689, "swabia": 0.999998042558689, "reporters": 9.99998042558689, "dogmail": 2.999994127676067, "distinctmartin": 0.999998042558689, "salesmen": 1.999996085117378, "sqkqmeo": 0.999998042558689, "3652": 0.999998042558689, "agone": 0.999998042558689, "undertake": -1.999996085117378, "appendage": 0.999998042558689, "chubby": 1.999996085117378, "720": 31.999937361878047, "disease": 10.99997846814558, "customhouse": 9.99998042558689, "chain": -3.999992170234756, "awvo": 0.999998042558689, "dermal": 0.999998042558689, "ywhere": 10.99997846814558, "congjhsll": 2.999994127676067, "conference": -203.99960068197257, "inadequacy": 0.999998042558689, "mderekpvt": 0.999998042558689, "dangerous": 9.99998042558689, "clues": 4.999990212793445, "94215": 5.999988255352134, "cdt": -0.999998042558689, "expatriate": -22.999954978849846, "transatlantic": 0.999998042558689, "rogers": 2.999994127676067, "running": 5.999988255352134, "znfj": 0.999998042558689, "retracements": 2.999994127676067, "receives": -3.999992170234756, "omnipresent": 9.99998042558689, "depolivlyery": 0.999998042558689, "prescri": 0.999998042558689, "fixture": 0.999998042558689, "composited": 0.999998042558689, "rachunkowoscia": -4.999990212793445, "zinck": -0.999998042558689, "fashion": -2.999994127676067, "2002020524": -0.999998042558689, "rummymeistersinger": 0.999998042558689, "crossway": 0.999998042558689, "phonehttp": 10.99997846814558, ",": 44.999911915141006, "lxx": 0.999998042558689, "cayuga": 1.999996085117378, "johanson": 2.999994127676067, "898": -14.999970638380335, "glitter": 3.999992170234756, "felgk": 2.999994127676067, "fvj": 0.999998042558689, "coccidiosis": 3.999992170234756, "birth": -0.999998042558689, "carfare": 3.999992170234756, "dll": 1.999996085117378, "gzzyb": 0.999998042558689, "bran": 2.999994127676067, "meridia": 22.999954978849846, "burners": 0.999998042558689, "springe": 4.999990212793445, "purification": 3.999992170234756, "2002012015": -0.999998042558689, "nirvanal": 1.999996085117378, "wliqp": 2.999994127676067, "pissed": -22.999954978849846, "hornetsymbol": 0.999998042558689, "ekykqhkq": 0.999998042558689, "desde": 3.999992170234756, "tvpredictions": 0.999998042558689, "utterly": 2.999994127676067, "about": -140.99972400077516, "yisxx": -1.999996085117378, "882": -1.999996085117378, "index": -35.9999295321128, "wong": -0.999998042558689, "crucifix": 5.999988255352134, "ihqvjggtk": 7.999984340469512, "novelty": 7.999984340469512, "extemporaneous": 2.999994127676067, "gridiron": 0.999998042558689, "iaiity": 2.999994127676067, "afloat": 1.999996085117378, "pedestal": 0.999998042558689, "trang": -4.999990212793445, "stylised": -1.999996085117378, "bluejacketwealth": 5.999988255352134, "nzxwo": 0.999998042558689, "coral": -0.999998042558689, "jam": 2.999994127676067, "constituent": -1.999996085117378, "pickoff": 1.999996085117378, "pas": 1.999996085117378, "13391355761": 0.999998042558689, "exed": -3.999992170234756, "pandemonium": 0.999998042558689, "eyait": 0.999998042558689, "semantics": 0.999998042558689, "reman": 1.999996085117378, "kfzoj": 0.999998042558689, "reporter": 0.999998042558689, "irreducible": 0.999998042558689, "erotize": 1.999996085117378, "credentialnbsp": 0.999998042558689, "?xq": 0.999998042558689, "uniquely": 0.0, "volunteering": -0.999998042558689, "stevenson": 0.0, "invoices": -28.999943234201982, "nightclubs": 1.999996085117378, "airbill": -0.999998042558689, "ukdirectory": 0.999998042558689, "interactively": -4.999990212793445, "njepcz": 2.999994127676067, "unneeded": -1.999996085117378, "flee": 2.999994127676067, "tracking": 29.99994127676067, "bezowe": -0.999998042558689, "1099": 0.999998042558689, "dnoe": 5.999988255352134, "8521": 1.999996085117378, "precious": 3.999992170234756, "5929": -0.999998042558689, "nui": 14.999970638380335, "timely": 4.999990212793445, "rss": 18.99996280861509, "lolitas": 0.999998042558689, "zlptv": 1.999996085117378, "files": -60.999880596080025, "suggest": -4.999990212793445, "handicraftsmen": 1.999996085117378, "plushy": 1.999996085117378, "583092": -0.999998042558689, "ahlhckrb": 2.999994127676067, "isye": -14.999970638380335, "nuclide": 1.999996085117378, "thicket": -1.999996085117378, "colorless": 3.999992170234756, "tm": -78.99984536213643, "ycjeth": 1.999996085117378, "5436": 3.999992170234756, "nailing": -0.999998042558689, "unts": 0.999998042558689, "kturley": -0.999998042558689, "ramesh": -7.999984340469512, "coc": 15.999968680939023, "hannataffy": 0.999998042558689, "alluvium": 2.999994127676067, "yf": -25.999949106525914, "albania": 2.999994127676067, "llu": 7.999984340469512, "conferencenbsp": 0.999998042558689, "contemptuous": 0.999998042558689, "wlci": 1.999996085117378, "jorian": -2.999994127676067, "cameroun": 2.999994127676067, "epigenetic": 0.999998042558689, "cellphone": -0.999998042558689, "cheek": 1.999996085117378, "openhto": 1.999996085117378, "okolo": -4.999990212793445, "mateo": 1.999996085117378, "embracing": 0.999998042558689, "kbak": 1.999996085117378, "5801": -0.999998042558689, "mart": -5.999988255352134, "stufftitle": 8.9999823830282, "fuckpoles": 0.999998042558689, "recherche": 1.999996085117378, "0672": 1.999996085117378, "equinoctial": 0.999998042558689, "smoother": -2.999994127676067, "limiet": 0.999998042558689, "negligee": 0.999998042558689, "wskaznikowej": -4.999990212793445, "chap": 6.999986297910823, "magnetite": 0.999998042558689, "teams": -24.999951063967224, "korpi": -1.999996085117378, "claudia": 0.0, "133777": 6.999986297910823, "workers": -1.999996085117378, "5003": -0.999998042558689, "backspace": 3.999992170234756, "gentleman": -2.999994127676067, "tomake": 0.999998042558689, "ridgeplate": 0.999998042558689, "wvyscckzd": 0.999998042558689, "moritz": -0.999998042558689, "minister": 29.99994127676067, "cdsnet": 14.999970638380335, "exisiting": 0.0, "furiously": -1.999996085117378, "bmwpearl": 0.999998042558689, "gates": 5.999988255352134, "texcotextile": 0.999998042558689, "corey": 2.999994127676067, "littlestocks": 3.999992170234756, "stimuiate": 4.999990212793445, "retaitl": 0.999998042558689, "richb": -0.999998042558689, "elpaso": -4.999990212793445, "headlights": 2.999994127676067, "dh": -1.999996085117378, "fuifil": 1.999996085117378, "barren": 6.999986297910823, "moechten": 15.999968680939023, "cccccc": 0.999998042558689, "contacter": 0.999998042558689, "0029": 7.999984340469512, "hoffman": -1.999996085117378, "dusseldorf": 0.999998042558689, "turtle": 0.999998042558689, "1085": 1.999996085117378, "phksav": 0.999998042558689, "raton": 2.999994127676067, "6724": -1.999996085117378, "fusible": 0.999998042558689, "izbmmn": 1.999996085117378, "deploy": -0.999998042558689, "katonah": 0.999998042558689, "719952": -0.999998042558689, "woemen": 1.999996085117378, "seyfried": -4.999990212793445, "mwcsv": 0.999998042558689, "products": 52.999896255610516, "vexatious": 5.999988255352134, "doubled": 0.999998042558689, "delicacy": -1.999996085117378, "chatham": 1.999996085117378, "584331": -0.999998042558689, "ehluqg": 0.999998042558689, "figured": -1.999996085117378, "pgp": 81.9998394898125, "freud": 0.999998042558689, "several": -3.999992170234756, "spreacoreatern": 0.999998042558689, "indesirable": 1.999996085117378, "altavista": 5.999988255352134, "developments": 7.999984340469512, "38191062": 0.999998042558689, "salimibrah": 2.999994127676067, "stool": 0.999998042558689, "abusing": 0.999998042558689, "editors": 0.999998042558689, "meta": 45.99990995769969, "coed": 1.999996085117378, "7950": 3.999992170234756, "celeste": -3.999992170234756, "ahochuzmlzgkxmzcp": 1.999996085117378, "fazer": 2.999994127676067, "workplace": -2.999994127676067, "dvpzc": 0.999998042558689, "coke": 10.99997846814558, "stitute": 0.999998042558689, "circumscription": 2.999994127676067, "proceeded": 2.999994127676067, "automate": 8.9999823830282, "obtrusion": 0.999998042558689, "collinear": 0.999998042558689, "30569": -0.999998042558689, "turin": 0.999998042558689, "gregarious": 1.999996085117378, "extolling": 5.999988255352134, "enjoying": -10.99997846814558, "beiiefs": 1.999996085117378, "orange": -5.999988255352134, "armada": -2.999994127676067, "buddhism": 0.999998042558689, "stratton": 15.999968680939023, "schooner": 2.999994127676067, "joyfully": 0.999998042558689, "kiangsu": 0.999998042558689, "rbxns": 1.999996085117378, "libert": -0.999998042558689, "mmjohc": 0.999998042558689, "favoritism": -0.999998042558689, "instable": 1.999996085117378, "antipodes": 1.999996085117378, "toper": 0.999998042558689, "hzt": 0.999998042558689, "mailfolder": 0.999998042558689, "arkana": 0.999998042558689, "journal": -12.999974553262957, "foundation": 5.999988255352134, "chromatography": 4.999990212793445, "skiayvb": 3.999992170234756, "1154": 1.999996085117378, "undiscovered": 4.999990212793445, "inordinately": 0.999998042558689, "seven": 8.9999823830282, "chivalry": 2.999994127676067, "veal": 0.999998042558689, "replevy": 0.999998042558689, "bxfiurmpj": 0.999998042558689, "pouvoir": 0.999998042558689, "nearest": 2.999994127676067, "homel": 3.999992170234756, "witten": 0.999998042558689, "xqgjzz": 0.999998042558689, "shirt": -21.99995693629116, "comment": -1.999996085117378, "judiciary": 0.999998042558689, "customerss": 1.999996085117378, "cystic": 0.999998042558689, "histidine": 0.999998042558689, "cyclopean": 0.999998042558689, "motley": 0.999998042558689, "seamstress": 0.999998042558689, "zu": 35.9999295321128, "raritan": 2.999994127676067, "danke": 1.999996085117378, "gacia": -0.999998042558689, "yanzhou": 0.999998042558689, "popt": 3.999992170234756, "72": 15.999968680939023, "ssa": 3.999992170234756, "crumb": 8.9999823830282, "ncessry": 0.999998042558689, "00319": 1.999996085117378, "wraz": -6.999986297910823, "terk": 1.999996085117378, "iengines": 0.999998042558689, "3829": -0.999998042558689, "trfeyh": 0.999998042558689, "brazil": -7.999984340469512, "inapplicable": 1.999996085117378, "saugrohr": 0.999998042558689, "netspace": 2.999994127676067, "cutesy": 1.999996085117378, "escadrille": 6.999986297910823, "aifbs": 2.999994127676067, "article": -9.99998042558689, "around": -29.99994127676067, "acquisitive": 2.999994127676067, "3472": -8.9999823830282, "originally": -15.999968680939023, "posey": 0.0, "establishes": -10.99997846814558, "becloudherdsman": 1.999996085117378, "conveniences": 10.99997846814558, "snorkel": 2.999994127676067, "geraldine": -0.999998042558689, "berman": 5.999988255352134, "aqnd": -0.999998042558689, "tremulous": 1.999996085117378, "atb": -2.999994127676067, "exndakh": 0.999998042558689, "guardian": 0.999998042558689, "oqnoh": 0.999998042558689, "husbandman": 0.999998042558689, "lalji": -0.999998042558689, "impotent": 3.999992170234756, "dimlym": 1.999996085117378, "ipos": 0.999998042558689, "299": 5.999988255352134, "zocor": 6.999986297910823, "1902": 13.999972595821646, "zuidholland": 0.999998042558689, "?brigens": 0.999998042558689, "moshedelaney": 0.999998042558689, "zaimejlowac": -8.9999823830282, "organizacyjnego": -0.999998042558689, "homomorphism": 3.999992170234756, "1340": 0.999998042558689, "viewsingle": 2.999994127676067, "qri": 1.999996085117378, "\u008a": 13.999972595821646, "fitted": -0.999998042558689, "yik": 0.999998042558689, "allegiant": 1.999996085117378, "dally": 2.999994127676067, "vorhaenge": 0.999998042558689, "monfort": 3.999992170234756, "lump": 4.999990212793445, "dispense": 1.999996085117378, "leandro": 0.999998042558689, "?????????????": 2.999994127676067, "embroidery": 5.999988255352134, "spices": 2.999994127676067, "siteguaaranteed": 0.999998042558689, "zcthi": 0.999998042558689, "119": 21.99995693629116, "caused": -9.99998042558689, "recollection": -1.999996085117378, "magnetslip": 1.999996085117378, "obi": -2.999994127676067, "xnpqmc": 0.999998042558689, "heckman": 0.999998042558689, "uvjmrbbzw": 2.999994127676067, "nrdfpftx": 2.999994127676067, "vpeiqsj": 0.999998042558689, "slow": -14.999970638380335, "fleas": -14.999970638380335, "nxied": 0.999998042558689, "sonoma": 1.999996085117378, "embarrassingly": -0.999998042558689, "ely": 2.999994127676067, "conus": -0.999998042558689, "dziesiejszy": -0.999998042558689, "previ": 0.999998042558689, "trzymajcie": -3.999992170234756, "ire": 14.999970638380335, "mythic": 1.999996085117378, "qpl": 0.999998042558689, "azwma": 2.999994127676067, "rdvbfylolythsp": -1.999996085117378, "getaway": -6.999986297910823, "unite": -2.999994127676067, "zllw": 0.999998042558689, "warplane": 0.999998042558689, "precisa": 1.999996085117378, "tracker": -17.9999647660564, "jvmvw": 0.999998042558689, "ivy": -5.999988255352134, "suitor": 1.999996085117378, "confidentiatlity": 0.999998042558689, "acumen": -3.999992170234756, "sted": 1.999996085117378, "cobaltnetworks": -1.999996085117378, "decompress": 1.999996085117378, "emmett": 0.999998042558689, "rky": 0.999998042558689, "jhelum": 0.999998042558689, "cmzugzbdhd": 0.999998042558689, "atyt": 0.999998042558689, "uixydafd": 1.999996085117378, "breakup": 6.999986297910823, "aac": 1.999996085117378, "arialour": 5.999988255352134, "araby": 1.999996085117378, "outgo": 0.999998042558689, "gudgets": 10.99997846814558, "seehowitgoesbetter": 1.999996085117378, "cce": -9.99998042558689, "leads": 31.999937361878047, "woodward": 7.999984340469512, "departamentos": 0.999998042558689, "revetments": 0.999998042558689, "pricelist": 0.999998042558689, "vee": 0.999998042558689, "bombs": 5.999988255352134, "vitiate": 0.999998042558689, "grandfather": -0.999998042558689, "fruitless": 1.999996085117378, "3200": 1.999996085117378, "tautology": 1.999996085117378, "egauz": 0.999998042558689, "jzlyvoixxgpfo": 0.999998042558689, "lahore": 1.999996085117378, "pipe": -13.999972595821646, "clusterhost": 0.999998042558689, "riders": -3.999992170234756, "ke": 11.999976510704268, "franciscan": 0.999998042558689, "aorta": 0.999998042558689, "1507": -5.999988255352134, "affirmatively": 0.999998042558689, "ounce": 6.999986297910823, "organics": 0.999998042558689, "condemnation": 1.999996085117378, "whitney": 2.999994127676067, "errigo": -1.999996085117378, "ctom": -0.999998042558689, "williamson": -2.999994127676067, "fir": 12.999974553262957, "lyondell": -1.999996085117378, "lipiitor": 1.999996085117378, "carbaugh": -15.999968680939023, "bizimg": 3.999992170234756, "point": -104.99979446866234, "valtee": 0.999998042558689, "quinones": 1.999996085117378, "tytuowa": -1.999996085117378, "sjkct": 0.999998042558689, "neighborhoods": 0.999998042558689, "fbl": 1.999996085117378, "recorder": 4.999990212793445, "reconciliation": -1.999996085117378, "reynosa": -6.999986297910823, "vulgar": 0.999998042558689, "idioticosmium": 0.999998042558689, "dahomey": 0.999998042558689, "afternooncirculate": 5.999988255352134, "worn": 2.999994127676067, "225465": 0.999998042558689, "sinclair": -2.999994127676067, "gleiwitz": 0.999998042558689, "kirk": 1.999996085117378, "pander": 0.999998042558689, "ydraenp": 3.999992170234756, "plans": 5.999988255352134, "hidden": 35.9999295321128, "hongkong": 0.999998042558689, "wowmail": 0.999998042558689, "aoq": 0.999998042558689, "frevert": -3.999992170234756, "887960": 6.999986297910823, "professionais": 1.999996085117378, "poweriska": -0.999998042558689, "rosenberg": 4.999990212793445, "6199": -15.999968680939023, "funkcji": -4.999990212793445, "committedtsarina": 3.999992170234756, "otff": 0.999998042558689, "breguet": 11.999976510704268, "isiand": 0.999998042558689, "conspiratorial": 0.999998042558689, "trucking": -6.999986297910823, "bragging": -5.999988255352134, "wop": 0.999998042558689, "chowder": -0.999998042558689, "devolatilize": 2.999994127676067, "ceeuk": 0.999998042558689, "turntable": 0.999998042558689, "toformer": 0.999998042558689, "slothful": 0.999998042558689, "reminding": 0.999998042558689, "zsiiyhmu": 2.999994127676067, "phsiang": -0.999998042558689, "balconyrepublican": 1.999996085117378, "phony": 10.99997846814558, "maritain": 0.999998042558689, "napvn": 0.999998042558689, "panelized": 0.999998042558689, "wnbra": 1.999996085117378, "brownish": 2.999994127676067, "7163": 1.999996085117378, "hairmagict": 3.999992170234756, "jib": -1.999996085117378, "actinopod": 0.999998042558689, "herein": 20.99995889373247, "faro": 1.999996085117378, "fowur": 0.999998042558689, "cornhuskers": -10.99997846814558, "franz": 2.999994127676067, "morphisms": 0.999998042558689, "decorous": 2.999994127676067, "sas": -7.999984340469512, "uaocz": 1.999996085117378, "burroughs": 1.999996085117378, "39746": -1.999996085117378, "josephson": 0.999998042558689, "doccctctorr": 0.999998042558689, "crushconsumptive": 1.999996085117378, "trifluoride": 0.999998042558689, "millwright": 0.999998042558689, "fishermen": 2.999994127676067, "bce": 0.999998042558689, "chirology": 0.999998042558689, "inexpressive": 0.999998042558689, "quadrupie": 5.999988255352134, "client": -130.99974357518826, "mel": 5.999988255352134, "uegacw": 0.999998042558689, "ezra": 0.999998042558689, "conquered": 2.999994127676067, "vpoil": 0.999998042558689, "backwardation": -1.999996085117378, "gleam": 9.99998042558689, "43": -14.999970638380335, "seconds": -23.999953021408537, "greatcarrates": 1.999996085117378, "htmlheadtitlecome": 0.999998042558689, "regulates": 1.999996085117378, "gundamfan": 2.999994127676067, "crian?as": 0.999998042558689, "355": 19.99996085117378, "jnatiq": 0.999998042558689, "journalist": -0.999998042558689, "realize": -20.99995889373247, "19980802": -4.999990212793445, "disturbancewarsaw": 0.999998042558689, "minnesota": 28.999943234201982, "joyful": 6.999986297910823, "magnified": 13.999972595821646, "uptown": 0.999998042558689, "contain": -17.9999647660564, "9005": 2.999994127676067, "semin?rios": 0.999998042558689, "snoop": 0.999998042558689, "352": 1.999996085117378, "ql": -2.999994127676067, "kyoto": 3.999992170234756, "youngest": 3.999992170234756, "amr": -5.999988255352134, "heinedistributor": 5.999988255352134, "meandering": -0.999998042558689, "proximity": 1.999996085117378, "garth": 0.999998042558689, "ahmad": -8.9999823830282, "emirates": 33.99993344699543, "vinobie": 0.999998042558689, "udubt": 1.999996085117378, "viscera": 1.999996085117378, "httano": 3.999992170234756, "costbased": -0.999998042558689, "memento": 2.999994127676067, "lodging": -4.999990212793445, "sheltered": 0.999998042558689, "448453342783": -1.999996085117378, "sugqestions": 3.999992170234756, "wicket": 5.999988255352134, "slip": -3.999992170234756, "consoiidation": 0.999998042558689, "older": -0.999998042558689, "even": 138.99972791565776, "outlawed": -1.999996085117378, "serendipity": 3.999992170234756, "khalifa": 1.999996085117378, "epelectric": -29.99994127676067, "wgurgitation": 0.999998042558689, "yankee": 21.99995693629116, "zfmuhlpmicrosoft": 3.999992170234756, "medal": 0.999998042558689, "mananomah": -2.999994127676067, "itmfhekkj": 2.999994127676067, "unsubscribed": 3.999992170234756, "121401": 9.99998042558689, "broadcast": 62.99987668119741, "zzasumlr": 2.999994127676067, "dischel": -1.999996085117378, "slave": 2.999994127676067, "bharsh": -0.999998042558689, "kxxjn": 5.999988255352134, "antonym": 1.999996085117378, "parkways": 0.999998042558689, "energyevents": -0.999998042558689, "ddkiktwfi": 0.999998042558689, "tlemq": 0.999998042558689, "runswick": -0.999998042558689, "ennium": 1.999996085117378, "lhdgewm": 0.999998042558689, "pjmmfpecj": 0.999998042558689, "consumers": -3.999992170234756, "rockfordark": 0.999998042558689, "dendpes": 5.999988255352134, "slotter": 2.999994127676067, "piping": 0.0, "fortune": 43.99991387258232, "ejnoying": 1.999996085117378, "thefilecompany": 0.999998042558689, "teahouse": 0.999998042558689, "rushdan": 0.999998042558689, "rqsm": 0.999998042558689, "keeling": 0.999998042558689, "rate": -20.99995889373247, "debugger": 1.999996085117378, "aqua": 3.999992170234756, "pmvsjkrko": 3.999992170234756, "ections": 0.999998042558689, "bake": 2.999994127676067, "conjurer": 1.999996085117378, "hurricane": -46.99990800025838, "omahahttp": 0.999998042558689, "cartridges": 18.99996280861509, "glans": 0.999998042558689, "antonomasia": 0.999998042558689, "successfull": 0.999998042558689, "goofy": 0.999998042558689, "threat": 23.999953021408537, "136": 13.999972595821646, "hush": 10.99997846814558, "lozenges": 21.99995693629116, "coach": -0.999998042558689, "yvojjpvayimp": 3.999992170234756, "webtsite": 4.999990212793445, "harmful": 2.999994127676067, "mineralisation": 0.999998042558689, "hettie": 1.999996085117378, "submarine": -0.999998042558689, "connote": 1.999996085117378, "history": 17.9999647660564, "dholwerda": -0.999998042558689, "xanex": 0.999998042558689, "intestate": 0.999998042558689, "constantin": 9.99998042558689, "logging": -3.999992170234756, "prove": 37.99992561723018, "hain": -0.999998042558689, "zfmuhlpmacromedia": 0.999998042558689, "yourlefs": 0.999998042558689, "deleted": -6.999986297910823, "orin": 0.999998042558689, "contacting": 9.99998042558689, "howit": 1.999996085117378, "7453": -0.999998042558689, "unjust": -0.999998042558689, "nick": -1.999996085117378, "214251": -5.999988255352134, "nehru": 0.999998042558689, "iol": 7.999984340469512, "plays": 4.999990212793445, "alongside": 1.999996085117378, "itra": 0.999998042558689, "autocad": 6.999986297910823, "nqejl": 0.999998042558689, "antedate": 9.99998042558689, "deposited": 26.9999471490846, "includegeneral": 0.999998042558689, "pana": -12.999974553262957, "azxpavfo": 0.999998042558689, "tailles": 0.999998042558689, "oxjjxpne": 0.999998042558689, "powerline": 7.999984340469512, "casiino": 0.999998042558689, "yoonsuk": 1.999996085117378, "saucepan": 0.999998042558689, "ezekiel": 1.999996085117378, "fthebest": 0.999998042558689, "goup": -15.999968680939023, "discriminate": 2.999994127676067, "diprotodont": 0.999998042558689, "pena": -24.999951063967224, "hollweck": -2.999994127676067, "stops": 17.9999647660564, "rill": 2.999994127676067, "boil": -13.999972595821646, "suntanning": 0.999998042558689, "homepage": -6.999986297910823, "nemesis": 0.999998042558689, "qwpoazrrn": 0.999998042558689, "seemyw": -1.999996085117378, "obsequy": 0.999998042558689, "knopke": 3.999992170234756, "camber": 4.999990212793445, "cardholder": 2.999994127676067, "480": 4.999990212793445, "devon": -1.999996085117378, "inijusti": 1.999996085117378, "jdz": 0.999998042558689, "pressures": -0.999998042558689, "ewkhoafq": 0.999998042558689, "censorious": 1.999996085117378, "940": 0.0, "tune": -9.99998042558689, "ugvwijw": 0.999998042558689, "asayegpbh": 0.999998042558689, "refcard": -0.999998042558689, "blythe": 9.99998042558689, "beget": 0.999998042558689, "unwed": -2.999994127676067, "lyris": -8.9999823830282, "collumbus": 1.999996085117378, "downspout": 3.999992170234756, "hao": 0.999998042558689, "excercise": 5.999988255352134, "haedicke": -3.999992170234756, "bfc": 0.999998042558689, "notifiying": -1.999996085117378, "wurde": 15.999968680939023, "factious": 1.999996085117378, "ajhzzzhgbr": 0.999998042558689, "piracy": 5.999988255352134, "halocarbon": 0.999998042558689, "killings": 0.999998042558689, "yokuts": 1.999996085117378, "mjhbgo": 0.999998042558689, "7059": 19.99996085117378, "df": -1.999996085117378, "navigated": 0.999998042558689, "varian": 0.999998042558689, "glaucous": 0.999998042558689, "minimize": 0.999998042558689, "989643": -3.999992170234756, "lipread": 0.999998042558689, "blowat": 1.999996085117378, "pertained": -1.999996085117378, "zworxrfyzwwtz": 0.999998042558689, "cotangent": 0.999998042558689, "elektronische": 1.999996085117378, "liquate": 0.999998042558689, "fantasy": 0.999998042558689, "askance": 0.999998042558689, "idp": -1.999996085117378, "dqdcosgx": 0.999998042558689, "frilliusrning": 4.999990212793445, "hass": -0.999998042558689, "settled": 13.999972595821646, "petah": 10.99997846814558, "edith": -4.999990212793445, "conv": 0.999998042558689, "nationality": 8.9999823830282, "bernice": 0.999998042558689, "basics": -2.999994127676067, "extreme": 5.999988255352134, "origination": -18.99996280861509, "allocable": 4.999990212793445, "dampencapstan": 5.999988255352134, "dugout": 5.999988255352134, "opry": 0.999998042558689, "itphozdcl": 0.999998042558689, "nyu": 3.999992170234756, "dowel": 7.999984340469512, "oaks": 0.999998042558689, "tgslcz": 0.999998042558689, "tkkdu": 1.999996085117378, "wizgd": 0.999998042558689, "ccd": 23.999953021408537, "12214": -0.999998042558689, "428": 0.0, "coo": 1.999996085117378, "825": -2.999994127676067, "dxxtin": 0.999998042558689, "contagious": 0.999998042558689, "374": 0.999998042558689, "lollipop": 1.999996085117378, "\u000f": -116.99977097936662, "nkonvm": 2.999994127676067, "clearcase": -0.999998042558689, "counterparts": -7.999984340469512, "1497": -2.999994127676067, "rkqumd": 0.999998042558689, "trillion": 4.999990212793445, "investisseur": 0.999998042558689, "hlcbkbhxc": 1.999996085117378, "virtuosity": 0.999998042558689, "dig": -3.999992170234756, "vldeos": 0.999998042558689, "2690": 2.999994127676067, "perspicuous": 4.999990212793445, "turner": 3.999992170234756, "rainstorm": 4.999990212793445, "reno": -7.999984340469512, "archiv": 1.999996085117378, "margit": 3.999992170234756, "asacol": 6.999986297910823, "dowling": 2.999994127676067, "224899": -1.999996085117378, "collition": 0.999998042558689, "char": 0.999998042558689, "publishing": 1.999996085117378, "tota": 6.999986297910823, "791": 1.999996085117378, "penw": 0.999998042558689, "fhajixtv": 2.999994127676067, "aqueous": 2.999994127676067, "ysycuekha": 2.999994127676067, "background": -10.99997846814558, "guilt": 4.999990212793445, "crayfish": 1.999996085117378, "giv": 0.999998042558689, "hypersonic": 0.999998042558689, "predispose": 6.999986297910823, "solutiacute": 2.999994127676067, "moonsolecismgreat": 1.999996085117378, "demandcompany": 4.999990212793445, "backors": -2.999994127676067, "740": 5.999988255352134, "randomness": -0.999998042558689, "laredo": 0.999998042558689, "uslyszenia": -3.999992170234756, "relations": -6.999986297910823, "rejuvenate": 6.999986297910823, "ethylene": 0.999998042558689, "ringing": 2.999994127676067, "gerbil": 2.999994127676067, "level": 19.99996085117378, "133": 58.99988451096265, "or": -72.99985710678429, "ezgagbk": 2.999994127676067, "104282": -1.999996085117378, "qmyrrv": 0.999998042558689, "typos": -2.999994127676067, "96026572": -0.999998042558689, "gregg": 1.999996085117378, "paolo": 0.999998042558689, "eins": 0.999998042558689, "kunmail": 3.999992170234756, "marjorie": 1.999996085117378, "idg": -32.999935404436734, "cominco": -3.999992170234756, "levin": 13.999972595821646, "ckalmeida": -0.999998042558689, "rnment": 4.999990212793445, "remudamiento": 3.999992170234756, "puposes": 0.999998042558689, "parac": 6.999986297910823, "formed": 0.999998042558689, "bickerstaff": -0.999998042558689, "lawyers": -1.999996085117378, "residualincome": 0.999998042558689, "ditto": -1.999996085117378, "embedding": 1.999996085117378, "khnjddgyk": 1.999996085117378, "file": -137.99972987309908, "worthyconsular": 5.999988255352134, "npl": -24.999951063967224, "leatherfish": 1.999996085117378, "cattiesinc": 1.999996085117378, "ichthyornis": 0.999998042558689, "choppy": 0.999998042558689, "vlcdin": 0.999998042558689, "detergent": 0.999998042558689, "attest": 2.999994127676067, "cortez": 0.999998042558689, "howardlin": -1.999996085117378, "discerndearth": 0.999998042558689, "concordant": 1.999996085117378, "scaiabie": 0.999998042558689, "probabie": 0.999998042558689, "bitehcs": 5.999988255352134, "aegis": 4.999990212793445, "saved": 10.99997846814558, "angelfish": 1.999996085117378, "mudix": 0.999998042558689, "greeting": 26.9999471490846, "pp": -0.999998042558689, "arkansan": 2.999994127676067, "removeme": 2.999994127676067, "andorra": 1.999996085117378, "rmv": 0.999998042558689, "carboloy": 0.999998042558689, "dogtooth": 0.999998042558689, "inflatables": 7.999984340469512, "porosityarmadillo": 3.999992170234756, "freah": 0.999998042558689, "beckon": 0.999998042558689, "sweepstakes": -33.99993344699543, "amateur": 38.99992365978887, "pubiic": 1.999996085117378, "engle": 0.999998042558689, "hvts": 0.999998042558689, "midwest": -0.999998042558689, "iswcdd": 0.999998042558689, "5503": -1.999996085117378, "tabloid": 0.999998042558689, "designing": -0.999998042558689, "kwxvch": 0.999998042558689, "lacerta": 0.999998042558689, "hobbyists": 1.999996085117378, "excitelumpish": 5.999988255352134, "arrange": -23.999953021408537, "986347": -0.999998042558689, "written": -70.99986102166692, "overnlght": 1.999996085117378, "plng": 1.999996085117378, "hiccupped": 1.999996085117378, "fffifteen": 0.999998042558689, "bedrock": 0.999998042558689, "kyqdv": 7.999984340469512, "3324": 0.999998042558689, "yoshiura": -1.999996085117378, "simmer": 2.999994127676067, "pottery": 0.999998042558689, "vers": 1.999996085117378, "tale": 1.999996085117378, "aiert": 2.999994127676067, "axiomatic": 0.999998042558689, "circumvention": 0.999998042558689, "gumbel": -11.999976510704268, "moresby": 1.999996085117378, "bandb": 0.999998042558689, "koncu": -0.999998042558689, "successmark": 3.999992170234756, "44561": 0.999998042558689, "fidelity": -0.999998042558689, "zyewplkkk": 0.999998042558689, "biologics": 0.999998042558689, "premeditate": 0.999998042558689, "derations": -0.999998042558689, "cynical": -11.999976510704268, "eshug": 0.999998042558689, "womn": 0.999998042558689, "certain": 63.99987472375609, "yongcho": -0.999998042558689, "3326": 0.999998042558689, "behaviours": -1.999996085117378, "ntibrko": 2.999994127676067, "578": 2.999994127676067, "dilute": 4.999990212793445, "revile": 0.999998042558689, "quarters": -5.999988255352134, "wayward": 1.999996085117378, "almostpickering": 9.99998042558689, "lis": 17.9999647660564, "1019": 1.999996085117378, "jamestown": 5.999988255352134, "fhdom": 2.999994127676067, "squer": 5.999988255352134, "sidelining": -0.999998042558689, "uc": 2.999994127676067, "tphmpo": 0.999998042558689, "foundmy": 0.999998042558689, "retire": -1.999996085117378, "ohmic": 0.999998042558689, "narrate": 0.999998042558689, "zwlaszcza": -0.999998042558689, "clatteracademy": 1.999996085117378, "slough": 1.999996085117378, "leah": -4.999990212793445, "awaited": -1.999996085117378, "axwgv": 0.999998042558689, "sedayao": -0.999998042558689, "parallelepiped": 0.999998042558689, "aeh": 2.999994127676067, "palladia": 2.999994127676067, "snuggle": 2.999994127676067, "domain": 26.9999471490846, "kilgore": 0.999998042558689, "matagorda": -4.999990212793445, "chew": 1.999996085117378, "quantinleap": -1.999996085117378, "sparta": 0.999998042558689, "lodestone": 3.999992170234756, "lvhf": 1.999996085117378, "smell": 6.999986297910823, "817": -8.9999823830282, "moyer": -4.999990212793445, "okay": 0.999998042558689, "vmolxrg": 0.999998042558689, "lateral": 1.999996085117378, "riven": 0.999998042558689, "transpond": 6.999986297910823, "reclamation": 6.999986297910823, "diskografske": 11.999976510704268, "afoulfeat": 0.999998042558689, "suasion": 0.999998042558689, "someone": -38.99992365978887, "vquill": -1.999996085117378, "misses": 0.999998042558689, "ripley": -13.999972595821646, "dallas": -82.99983753237119, "lucretia": 0.999998042558689, "tangobenoit": 0.999998042558689, "nikko": 1.999996085117378, "alcoholic": 2.999994127676067, "dodatkowe": -4.999990212793445, "chaffee": 0.999998042558689, "dodatkowych": -0.999998042558689, "enrj": -49.99990212793445, "\u00e8": 2.999994127676067, "termine": 4.999990212793445, "allowing": -14.999970638380335, "mbeki": 0.999998042558689, "foodchain": -1.999996085117378, "upon": 47.999906042817074, "performs": -1.999996085117378, "crabmeat": 1.999996085117378, "trust": 41.99991778746494, "expftr": -2.999994127676067, "barbados": 4.999990212793445, "oygobf": 0.999998042558689, "quigley": -1.999996085117378, "zyzktvvfbei": 1.999996085117378, "mrc": 0.999998042558689, "kellly": -2.999994127676067, "rf": 4.999990212793445, "owed": -1.999996085117378, "savel": 0.999998042558689, "nit": 1.999996085117378, "refuses": -1.999996085117378, "oqwh": 0.999998042558689, "lheo": 0.999998042558689, "tempe": 2.999994127676067, "kline": -1.999996085117378, "guidlines": 1.999996085117378, "brasts": 0.999998042558689, "ylvz": 0.999998042558689, "whom": -19.99996085117378, "patti": -24.999951063967224, "drudge": 1.999996085117378, "underwood": -1.999996085117378, "suppository": 0.999998042558689, "stca": -1.999996085117378, "startle": 0.999998042558689, "turningq": 3.999992170234756, "saunders": 1.999996085117378, "beatrizbass": 1.999996085117378, "beneficl": 2.999994127676067, "kaleste": 2.999994127676067, "frsmusksk": 0.999998042558689, "mamy": -8.9999823830282, "misshapen": 2.999994127676067, "wavefrontl": 0.999998042558689, "pigtail": 2.999994127676067, "kk": 4.999990212793445, "bpap": -0.999998042558689, "disparate": 1.999996085117378, "waltzes": 6.999986297910823, "yxcqpl": 0.999998042558689, "46": 47.999906042817074, "namelijk": 0.999998042558689, "busparwps": 0.999998042558689, "taurus": 1.999996085117378, "jilt": 1.999996085117378, "mon": 20.99995889373247, "maupintour": 11.999976510704268, "mona": 0.0, "apostate": 0.999998042558689, "seaport": 2.999994127676067, "demolish": 3.999992170234756, "guiseppe": -1.999996085117378, "precisely": -0.999998042558689, "9885": 8.9999823830282, "dankt": 0.999998042558689, "bmqvjp": 0.999998042558689, "prweb": 0.999998042558689, "efend\u00dd": 0.999998042558689, "capietal": 0.999998042558689, "pmmllthkj": 3.999992170234756, "3217": 0.999998042558689, "arialyou": 5.999988255352134, "oeuavj": 0.999998042558689, "picture": 18.99996280861509, "1887": 0.999998042558689, "hncufu": 3.999992170234756, "aureomycin": 0.999998042558689, "popunder": 23.999953021408537, "cpdm": 3.999992170234756, "houstonstreet": -0.999998042558689, "swvkrrobr": 0.999998042558689, "2006": 23.999953021408537, "your": 116.99977097936662, "adso": 5.999988255352134, "medlcat": 1.999996085117378, "perpetural": -3.999992170234756, "bogey": 4.999990212793445, "tarry": 0.999998042558689, "102789": -1.999996085117378, "scarce": 2.999994127676067, "shantaewinston": 3.999992170234756, "prompt": 5.999988255352134, "138800": -1.999996085117378, "lingerie": 1.999996085117378, "sweeet": 0.999998042558689, "emissary": 3.999992170234756, "reauthorization": -1.999996085117378, "lobotomy": 1.999996085117378, "pappas": 0.999998042558689, "opi": 0.999998042558689, "functions": -12.999974553262957, "1984": 0.999998042558689, "enrolled": -7.999984340469512, "urajgy": 0.999998042558689, "mfg": -0.999998042558689, "6335": -0.999998042558689, "bought": 29.99994127676067, "bplpejmec": 2.999994127676067, "520": 1.999996085117378, "nvlij": 0.999998042558689, "833": 0.0, "wisc": -1.999996085117378, "piesniewska": -15.999968680939023, "israni": -0.999998042558689, "jvo": 0.999998042558689, "1395": 1.999996085117378, "soto": -5.999988255352134, "qkppfiui": 3.999992170234756, "exothermic": 1.999996085117378, "6788": -1.999996085117378, "yaupon": 0.999998042558689, "beemer": -7.999984340469512, "abuilding": 4.999990212793445, "wskaznikowa": -7.999984340469512, "kodloxlfvbr": 0.999998042558689, "1778": -0.999998042558689, "gfwcopde": 3.999992170234756, "kupic": -0.999998042558689, "grannys": 0.999998042558689, "teorest": 1.999996085117378, "kissing": 2.999994127676067, "maffia": -0.999998042558689, "beaver": 4.999990212793445, "wchmtt": 0.999998042558689, "varenukha": 3.999992170234756, "baaaaaack": -2.999994127676067, "fling": 2.999994127676067, "operating": -18.99996280861509, "slmply": 0.999998042558689, "source": -19.99996085117378, "chancefireball": 0.999998042558689, "qult": 2.999994127676067, "howard": -54.9998923407279, "condom": 0.999998042558689, "foliage": 1.999996085117378, "hcuevt": 0.999998042558689, "metod": -6.999986297910823, "providential": 0.999998042558689, "maybe": 1.999996085117378, "wherewithal": 1.999996085117378, "boxbed": 0.999998042558689, "maugham": 0.999998042558689, "maladapt": 0.999998042558689, "publications": -22.999954978849846, "8057": 1.999996085117378, "qzrzllvk": 1.999996085117378, "enhancced": 2.999994127676067, "sigam": -1.999996085117378, "medicationn": 0.999998042558689, "decaturpyroxenite": 1.999996085117378, "museum": 2.999994127676067, "permissive": 1.999996085117378, "plague": -2.999994127676067, "charters": -1.999996085117378, "hou": -334.9993442571608, "undulate": 0.999998042558689, "vpji": -1.999996085117378, "etfofr": 9.99998042558689, "deutsche": 5.999988255352134, "switchman": 0.999998042558689, "lakes": 0.999998042558689, "137971": -1.999996085117378, "expiode": 5.999988255352134, "conferm": 0.999998042558689, "privacy": -64.99987276631478, "flipflop": 2.999994127676067, "goldberg": -0.999998042558689, "igomk": 0.999998042558689, "firkin": 0.999998042558689, "104776": -1.999996085117378, "rijn": -0.999998042558689, "spearman": -0.999998042558689, "tamarchenko": -21.99995693629116, "vincent": -29.99994127676067, "ulltram": 0.999998042558689, "pracy": -9.99998042558689, "nineveh": 2.999994127676067, "68320341907955277": 0.999998042558689, "booth": -14.999970638380335, "swings": 3.999992170234756, "559": 0.0, "dreadlocked": 0.999998042558689, "sandwich": 0.0, "lilliana": 0.999998042558689, "xaeyalpw": 0.999998042558689, "gustafson": 0.0, "cytochrome": 0.999998042558689, "removing": 2.999994127676067, "10341": 0.999998042558689, "celanese": 1.999996085117378, "intergrity": 0.999998042558689, "quicktouch": 0.999998042558689, "license": -35.9999295321128, "mailsweeper": -0.999998042558689, "cglfbydh": 0.999998042558689, "dvi": 0.999998042558689, "604056": -0.999998042558689, "gdzie": 5.999988255352134, "puccini": 3.999992170234756, "guideline": 0.0, "bride": 0.999998042558689, "deceit": 4.999990212793445, "pat": -16.999966723497714, "housewives": 2.999994127676067, "annemarie": 13.999972595821646, "jdahl": -0.999998042558689, "yusearch": 0.999998042558689, "cari": 0.999998042558689, "selecting": -10.99997846814558, "sportscover": -3.999992170234756, "loughridge": -5.999988255352134, "mouton": 0.999998042558689, "maridia": 3.999992170234756, "termed": -1.999996085117378, "bargains": 0.999998042558689, "invitaion": -0.999998042558689, "plaza": 0.999998042558689, "mali": 0.999998042558689, "catered": 1.999996085117378, "determinar": 0.999998042558689, "premiuml": 0.999998042558689, "fbcfbdl": 1.999996085117378, "8722": -1.999996085117378, "greener": 0.999998042558689, "fskhyl": 1.999996085117378, "securitized": -1.999996085117378, "archaicterrify": 0.999998042558689, "handclasp": 1.999996085117378, "websites": 20.99995889373247, "decease": 2.999994127676067, "abnamro": 0.999998042558689, "prpour": 4.999990212793445, "hee": -1.999996085117378, "overvveight": 1.999996085117378, "vtbqjy": 1.999996085117378, "poker": 1.999996085117378, "nakib": 1.999996085117378, "canfibre": -1.999996085117378, "eaze": 1.999996085117378, "cusso": 1.999996085117378, "islands": -1.999996085117378, "qljiyisjdvambww": -1.999996085117378, "vestal": -0.999998042558689, "freckle": 1.999996085117378, "twofold": 1.999996085117378, "studentka": -1.999996085117378, "fruitfully": -15.999968680939023, "'": -25.999949106525914, "radcliffe": 0.999998042558689, "infancy": 0.999998042558689, "universally": -0.999998042558689, "pmas": -6.999986297910823, "opponents": -0.999998042558689, "70120": -1.999996085117378, "incant": 7.999984340469512, "greenroom": -0.999998042558689, "wedelmusico": 0.999998042558689, "anarchy": 0.999998042558689, "nakedmail": 2.999994127676067, "baffle": 5.999988255352134, "555502221169": 0.999998042558689, "nested": -0.999998042558689, "proto": 3.999992170234756, "hang": 2.999994127676067, "teotihuacan": 1.999996085117378, "insecure": 1.999996085117378, "lanky": 1.999996085117378, "macromolecules": 2.999994127676067, "diddle": 1.999996085117378, "eduhttp": -0.999998042558689, "csh": 0.999998042558689, "copies": -20.99995889373247, "istore": 1.999996085117378, "pnter": 0.999998042558689, "vialogy": 3.999992170234756, "boomerang": 1.999996085117378, "lately": -6.999986297910823, "aji": 0.999998042558689, "sitesare": 0.999998042558689, "ipbfl": 0.999998042558689, "mscf": -25.999949106525914, "clinton": 2.999994127676067, "wers": 0.999998042558689, "multifarious": 1.999996085117378, "balustrades": 2.999994127676067, "tvyex": 0.999998042558689, "chipboard": 2.999994127676067, "durablepentagon": 0.999998042558689, "two": 6.999986297910823, "suffer": -2.999994127676067, "scheduled": -31.999937361878047, "dolror": 0.999998042558689, "bosporus": 1.999996085117378, "mandey": -0.999998042558689, "laryngology": 0.999998042558689, "amphisbaenian": 1.999996085117378, "alberto": 0.0, "supressed": 0.999998042558689, "elnor": 1.999996085117378, "pricje": 0.999998042558689, "cheerleaders": 0.0, "1390": 0.999998042558689, "sciences": 5.999988255352134, "collector": 5.999988255352134, "zmpgmw": 1.999996085117378, "tuners": 0.999998042558689, "results": 162.9996809370663, "ohp": -3.999992170234756, "ks": 10.99997846814558, "prouv?": 0.999998042558689, "185": 0.999998042558689, "testify": 0.999998042558689, "ticker": 9.99998042558689, "annex": 4.999990212793445, "quay": 0.999998042558689, "dim": 4.999990212793445, "aig": -3.999992170234756, "capreolate": 0.999998042558689, "superfine": 1.999996085117378, "devito": -1.999996085117378, "ilcampo": 0.999998042558689, "pentane": 1.999996085117378, "mohamed": -3.999992170234756, "arsenal": 7.999984340469512, "1857": 1.999996085117378, "dismantle": 10.99997846814558, "leaning": 11.999976510704268, "moly": 0.999998042558689, "ecs": 4.999990212793445, "dd": 0.999998042558689, "netsuchenhttp": 0.999998042558689, "hrose": 4.999990212793445, "guidorock": 0.999998042558689, "mentions": 2.999994127676067, "fgtobhnc": 0.999998042558689, "par": -9.99998042558689, "boastful": 2.999994127676067, "carmine": -1.999996085117378, "ramu": -0.999998042558689, "carissa": 0.999998042558689, "benwick": 1.999996085117378, "ibra": 0.999998042558689, "midst": 4.999990212793445, "psychotherapy": 1.999996085117378, "paramagnet": 2.999994127676067, "angelina": 2.999994127676067, "chemicals": 16.999966723497714, "curite": 1.999996085117378, "awn": 0.999998042558689, "abqrv": 0.999998042558689, "bottleneck": -1.999996085117378, "elite": 5.999988255352134, "doubleton": 1.999996085117378, "yourname": 0.999998042558689, "circuitcity": 0.999998042558689, "lopez": 2.999994127676067, "deplete": 3.999992170234756, "inman": 0.999998042558689, "expiosive": 1.999996085117378, "hebrew": 1.999996085117378, "watchmake": 0.999998042558689, "turcg": 3.999992170234756, "xbtkvi": 0.999998042558689, "definitive": -10.99997846814558, "choices": 1.999996085117378, "whos": 4.999990212793445, "cabot": 0.999998042558689, "andersen": -13.999972595821646, "scuttle": 0.999998042558689, "haldane": 0.999998042558689, "playhouse": 1.999996085117378, "pineapple": 0.999998042558689, "kodierungt": 0.999998042558689, "ascent": 0.999998042558689, "hilighted": -0.999998042558689, "vest": -0.999998042558689, "yooung": 4.999990212793445, "csnet": 1.999996085117378, "wellsfargo": 3.999992170234756, "eltlzrpb": 3.999992170234756, "boisterous": 1.999996085117378, "kone": 1.999996085117378, "publishable": 2.999994127676067, "galton": 24.999951063967224, "avocation": 11.999976510704268, "kuykendall": -1.999996085117378, "respondents": 9.99998042558689, "bakize": 1.999996085117378, "baker": -5.999988255352134, "camilla": 13.999972595821646, "bgkgzsbr": 0.999998042558689, "toodle": 1.999996085117378, "sam": -6.999986297910823, "ways": -4.999990212793445, "jestesmy": -0.999998042558689, "exhibiting": -0.999998042558689, "geadc": 0.999998042558689, "beatify": 0.999998042558689, "kfs": 1.999996085117378, "canopy": 0.999998042558689, "rangy": 1.999996085117378, "nbjrsm": 0.999998042558689, "thupequup": 2.999994127676067, "lug": 0.999998042558689, "jot": 0.999998042558689, "corrected": -14.999970638380335, "sanches": 9.99998042558689, "inapposite": 0.999998042558689, "hlqnvz": 0.999998042558689, "pmmvkv": 3.999992170234756, "handgriff": 1.999996085117378, "annale": 0.999998042558689, "contradict": 2.999994127676067, "fascicle": 1.999996085117378, "blevins": -0.999998042558689, "insistent": 1.999996085117378, "station": -36.999927574671496, "blaze": 0.0, "financiero": 0.999998042558689, "sanctity": 3.999992170234756, "procedural": -0.999998042558689, "basement": -2.999994127676067, "elaborately": 14.999970638380335, "verbaly": -0.999998042558689, "cdrom": 0.999998042558689, "pylosdsns": 2.999994127676067, "barbarian": 5.999988255352134, "latinizations": 3.999992170234756, "hgre": 1.999996085117378, "iove": 0.999998042558689, "vpikl": 0.999998042558689, "solicited": -0.999998042558689, "iukj": 0.999998042558689, "resetting": -5.999988255352134, "concave": 1.999996085117378, "apartner": 0.999998042558689, "125220": 0.999998042558689, "experiencing": -41.99991778746494, "4102": -0.999998042558689, "squaw": 1.999996085117378, "mosque": 1.999996085117378, "cardtechnology": 5.999988255352134, "shutter": 17.9999647660564, "bodybuilder": 0.999998042558689, "demand": -12.999974553262957, "highlighting": 0.999998042558689, "accenture": -0.999998042558689, "2795": -0.999998042558689, "externally": 3.999992170234756, "skyrocketing": -1.999996085117378, "interestingly": 5.999988255352134, "swords": -1.999996085117378, "friable": 11.999976510704268, "ses": -1.999996085117378, "svoufdtywsaprpe": 0.999998042558689, "jcaruso": -10.99997846814558, "apportion": 3.999992170234756, "martha": 0.999998042558689, "negotiant": 0.999998042558689, "offside": 2.999994127676067, "cherryswimming": 1.999996085117378, "690": 4.999990212793445, "rpmdacd": 8.9999823830282, "document": -29.99994127676067, "fontaine": 1.999996085117378, "figural": 2.999994127676067, "goais": 1.999996085117378, "bandit": 1.999996085117378, "wisher": 0.999998042558689, "quqivy": 0.999998042558689, "wtmym": 0.999998042558689, "crevier": -1.999996085117378, "t?cnico": 0.999998042558689, "password": -165.99967506474238, "668": -1.999996085117378, "qvute": 0.999998042558689, "eisexdk": 2.999994127676067, "redartifacts": 5.999988255352134, "absorptive": 0.999998042558689, "saba": 2.999994127676067, "asteroid": 1.999996085117378, "bootlegger": 0.999998042558689, "wristwatch": 0.999998042558689, "lrwcz": 0.999998042558689, "m????": 0.999998042558689, "borealis": 1.999996085117378, "htere": 0.999998042558689, "grypie": -3.999992170234756, "considering": 5.999988255352134, "implmentation": -1.999996085117378, "wxjki": 0.999998042558689, "chaff": -0.999998042558689, "afont": 0.999998042558689, "quilkey": -5.999988255352134, "yaher": 0.999998042558689, "botswana": 2.999994127676067, "codeword": 1.999996085117378, "oney": 2.999994127676067, "agora": 0.999998042558689, "thornton": 0.999998042558689, "krabicka": 0.999998042558689, "fasten": 2.999994127676067, "collier": 2.999994127676067, "portico": 4.999990212793445, "goal": -0.999998042558689, "cornelius": 15.999968680939023, "excatly": 0.999998042558689, "deuterium": 1.999996085117378, "crumble": 1.999996085117378, "intrepid": 2.999994127676067, "herrera": -2.999994127676067, "valerie": -0.999998042558689, "proudly": 3.999992170234756, "affectate": 9.99998042558689, "vanquish": 6.999986297910823, "deskin": 0.999998042558689, "benthic": 2.999994127676067, "corte": 0.999998042558689, "onpoint": -1.999996085117378, "swath": 4.999990212793445, "jinx": 0.999998042558689, "achieving": 0.999998042558689, "accrued": -16.999966723497714, "rkhfbb": 2.999994127676067, "tuesdaytwo": 1.999996085117378, "iahajrx": 0.999998042558689, "uoewlhvkt": 1.999996085117378, "machineries": 0.999998042558689, "setback": 0.999998042558689, "importation": 0.999998042558689, "wages": 0.0, "witness": -0.999998042558689, "horoscope": -6.999986297910823, "starts": -2.999994127676067, "jatbgmq": 0.999998042558689, "theater": 1.999996085117378, "marmont": 0.999998042558689, "hassan": 1.999996085117378, "reckoning": 2.999994127676067, "ezckl": 0.999998042558689, "xxanax": 0.999998042558689, "rebounded": 1.999996085117378, "35383": -7.999984340469512, "servers": -6.999986297910823, "76": 24.999951063967224, "aubrey": -3.999992170234756, "jocx": 0.999998042558689, "domestic": 10.99997846814558, "geman": -23.999953021408537, "cibcl": 0.999998042558689, "patrick": -8.9999823830282, "batteries": 6.999986297910823, "loop": 1.999996085117378, "prune": 0.999998042558689, "raptor": 1.999996085117378, "ani": 5.999988255352134, "counselors": 0.999998042558689, "thunder": -2.999994127676067, "balloonsl": 0.999998042558689, "dbwel": 0.999998042558689, "handline": 4.999990212793445, "mpeg": 8.9999823830282, "kzxgvamvlenkvnmo": 0.999998042558689, "karthik": -29.99994127676067, "yictpy": 1.999996085117378, "tommorrow": -0.999998042558689, "gol": 5.999988255352134, "bordello": 2.999994127676067, "bankofamerica": 0.999998042558689, "vpl": 3.999992170234756, "vienna": 29.99994127676067, "cent": 8.9999823830282, "dogberry": 0.999998042558689, "bassalh": -0.999998042558689, "asocial": 0.999998042558689, "3107": 1.999996085117378, "89107": 13.999972595821646, "shunda": 6.999986297910823, "recognize": -5.999988255352134, "investigations": 2.999994127676067, "617": -26.9999471490846, "58": 6.999986297910823, "lebroc": -2.999994127676067, "perusal": 3.999992170234756, "361": -6.999986297910823, "slime": 5.999988255352134, "tqesss": 0.999998042558689, "reflections": -4.999990212793445, "qzvzminfq": 1.999996085117378, "yiyey": 1.999996085117378, "grguidsuc": 0.999998042558689, "shymail": 1.999996085117378, "prescription": 96.99981012819283, "niiprtqd": 0.999998042558689, "mtiyn": 0.999998042558689, "este": 6.999986297910823, "cousin": 3.999992170234756, "\u0003": -0.999998042558689, "ntural": 0.999998042558689, "relate": -23.999953021408537, "spanish": 4.999990212793445, "qbukatvce": 2.999994127676067, "mqyaepr": 0.999998042558689, "endomorphism": 1.999996085117378, "tailing": -2.999994127676067, "reliably": 0.0, "republicczech": 0.999998042558689, "iene": 0.999998042558689, "rjdx": 0.999998042558689, "2": -57.999886468403965, "pitting": -6.999986297910823, "cloud": 6.999986297910823, "tongil": 0.999998042558689, "dandy": 5.999988255352134, "ezmlbwmsdtggtumeog": 1.999996085117378, "distributes": 1.999996085117378, "quotation": 1.999996085117378, "growl": 2.999994127676067, "megabyte": 0.999998042558689, "401": -2.999994127676067, "ntis": 4.999990212793445, "scel": -1.999996085117378, "zangarilleja": 3.999992170234756, "apologize": 2.999994127676067, "strategies": -1.999996085117378, "derived": -11.999976510704268, "swarms": 6.999986297910823, "udbmmvcfb": 0.999998042558689, "efworldexpos": 1.999996085117378, "bubert": -0.999998042558689, "4290": 0.999998042558689, "paxxil": 0.999998042558689, "enl": -65.99987080887347, "stalk": -3.999992170234756, "532": -0.999998042558689, "vocalic": 2.999994127676067, "publicly": 0.0, "artificiosum": 0.999998042558689, "batwing": 1.999996085117378, "perscription": 4.999990212793445, "vsti": 0.999998042558689, "kapok": 0.999998042558689, "accordance": 6.999986297910823, "drwdfrba": -1.999996085117378, "depositor": 0.999998042558689, "690249": -2.999994127676067, "aagrra": 0.999998042558689, "csihmtd": 0.999998042558689, "sorting": -7.999984340469512, "unqualified": 6.999986297910823, "ompnnxsy": 0.999998042558689, "wellheads": -0.999998042558689, "gdpkc": 0.999998042558689, "ties": 1.999996085117378, "devi": 1.999996085117378, "badeer": -0.999998042558689, "aunt": -1.999996085117378, "saturn": -3.999992170234756, "93": -12.999974553262957, "retailing": 0.999998042558689, "earthworm": 3.999992170234756, "ise": 6.999986297910823, "flying": 1.999996085117378, "lutetium": 2.999994127676067, "powermanl": 1.999996085117378, "some": -65.99987080887347, "1439": 0.999998042558689, "increasemartinienergy": 5.999988255352134, "autorisation": 1.999996085117378, "boldface": 3.999992170234756, "alo": 0.999998042558689, "calumniate": 0.999998042558689, "1174": 2.999994127676067, "impactbdetails": 0.999998042558689, "dwyer": 6.999986297910823, "rkwod": 0.999998042558689, "bault": -1.999996085117378, "taketh": 6.999986297910823, "qshans": 0.999998042558689, "1120": 7.999984340469512, "pci": 7.999984340469512, "macheke": 0.999998042558689, "628": 3.999992170234756, "tricky": -0.999998042558689, "pubescent": 0.999998042558689, "13951228561": 0.999998042558689, "splendor": 0.999998042558689, "platinumadnetworks": 2.999994127676067, "greasedecrease": 4.999990212793445, "412": -12.999974553262957, "allesklar": 0.999998042558689, "fjwwonm": 0.999998042558689, "bursts": 2.999994127676067, "stasis": 0.999998042558689, "member": 0.0, "vutqwmphl": 0.999998042558689, "pqmpdcil": 3.999992170234756, "municpal": 0.999998042558689, "2054": 0.999998042558689, "mbblm": 0.999998042558689, "flung": 3.999992170234756, "shto": 0.999998042558689, "megaplex": 0.999998042558689, "carcinoma": 1.999996085117378, "artists": 8.9999823830282, "02138": -1.999996085117378, "alcott": 2.999994127676067, "ghastly": 0.999998042558689, "23825": 19.99996085117378, "775": 0.999998042558689, "20123": -2.999994127676067, "cassandra": 3.999992170234756, "competent": 15.999968680939023, "foundrynet": -1.999996085117378, "unit": -58.99988451096265, "canton": 0.999998042558689, "000000000042084": -1.999996085117378, "swapping": 4.999990212793445, "djwosd": 1.999996085117378, "missing": -31.999937361878047, "pcx": -15.999968680939023, "gibbous": 1.999996085117378, "monte": -52.999896255610516, "commonweal": 0.999998042558689, "azhaw": 3.999992170234756, "stprt": 0.999998042558689, "ov": 15.999968680939023, "zamiast": -6.999986297910823, "evidence": -5.999988255352134, "sheer": 6.999986297910823, "fractions": -15.999968680939023, "claims": 32.999935404436734, "reprieve": 2.999994127676067, "participantes": 0.999998042558689, "ecol": -0.999998042558689, "mapdrawing": 4.999990212793445, "poisoning": 18.99996280861509, "hydrology": 2.999994127676067, "muniz": -3.999992170234756, "ssuquf": 0.999998042558689, "insbuyer": 0.999998042558689, "lustiger": 0.999998042558689, "gewag": 0.999998042558689, "bigrandomchar": 0.999998042558689, "siteion": 2.999994127676067, "drugs": 87.99982774516464, "acreage": 0.999998042558689, "attestation": 2.999994127676067, "disagree": 0.0, "97337787": 0.999998042558689, "alhamd": -3.999992170234756, "ykjpv": 0.999998042558689, "quzqqcy": 2.999994127676067, "amouth": 1.999996085117378, "univac": 0.999998042558689, "9489": 0.999998042558689, "procedures": -16.999966723497714, "materialien": 0.999998042558689, "rywvott": 2.999994127676067, "dusked": 2.999994127676067, "hawg": -14.999970638380335, "watchband": 0.999998042558689, "virtuaiiy": 5.999988255352134, "centera": 13.999972595821646, "vg": 0.999998042558689, "tuqdcd": 0.999998042558689, "oak": 7.999984340469512, "apt": 1.999996085117378, "6206": -13.999972595821646, "fuliy": 1.999996085117378, "82384": 2.999994127676067, "nesaneamembership": -0.999998042558689, "galloon": 0.999998042558689, "brooksdisanto": 1.999996085117378, "baldy": 0.999998042558689, "recapture": 13.999972595821646, "enforecement": 10.99997846814558, "laporte": -9.99998042558689, "deadwood": 2.999994127676067, "stereoscopy": 1.999996085117378, "drummond": -0.999998042558689, "gewlw": 0.999998042558689, "marketing": 85.99983166004725, "quinquereme": 0.999998042558689, "fontspan": 0.999998042558689, "sharjah": 1.999996085117378, "rlsezbjn": 1.999996085117378, "privilege": 0.999998042558689, "hatem": 4.999990212793445, "lwas": -1.999996085117378, "lose": 73.99985514934299, "gu": 0.999998042558689, "olol": 0.999998042558689, "lafgzwi": 2.999994127676067, "molossic": 1.999996085117378, "possessed": 0.999998042558689, "followings": 0.999998042558689, "nighttime": 8.9999823830282, "plumbago": 2.999994127676067, "medication": 59.99988255352134, "hoarse": 1.999996085117378, "asher": 0.999998042558689, "khtteweg": 0.999998042558689, "relax": 5.999988255352134, "itvsvt": 0.999998042558689, "owly": 0.999998042558689, "courtney": 4.999990212793445, "computational": 11.999976510704268, "1532": 0.999998042558689, "outage": -14.999970638380335, "fontainebleau": 0.999998042558689, "divergences": -0.999998042558689, "nardin": 2.999994127676067, "rqrqo": 0.999998042558689, "4722704408": 10.99997846814558, "1050": 2.999994127676067, "jjkrjocp": 1.999996085117378, "gs": 6.999986297910823, "5189": -0.999998042558689, "ceases": 0.999998042558689, "atrophic": 0.999998042558689, "postmaster": 3.999992170234756, "notary": 0.999998042558689, "renovation": 2.999994127676067, "gcp": -1.999996085117378, "stricken": 1.999996085117378, "roamaed": 0.999998042558689, "duplicatable": 3.999992170234756, "znalazlam": 6.999986297910823, "05411": 1.999996085117378, "swift": -7.999984340469512, "samaritan": 0.999998042558689, "idegqriv": 1.999996085117378, "score": 15.999968680939023, "loanhelpamerica": 1.999996085117378, "insuranceiq": 2.999994127676067, "flue": 4.999990212793445, "tjfjeh": 0.999998042558689, "huangli": 1.999996085117378, "elusive": 1.999996085117378, "allocation": -34.999931489554115, "33145": 6.999986297910823, "elsbp": -2.999994127676067, "3463": 1.999996085117378, "982630": -0.999998042558689, "preschedulers": -0.999998042558689, "criticized": 1.999996085117378, "expecting": -3.999992170234756, "malice": 0.999998042558689, "pamela": -8.9999823830282, "skirl": 1.999996085117378, "xberninip": 0.999998042558689, "lithic": 1.999996085117378, "arbeitsam": 1.999996085117378, "sternly": 0.999998042558689, "wobec": -0.999998042558689, "jim": -63.99987472375609, "devices": 0.0, "huxs": 0.999998042558689, "vnbl": 13.999972595821646, "bob": -106.99979055377972, "taffymontreal": 0.999998042558689, "haarder": 8.9999823830282, "compelled": 0.999998042558689, "3211": -4.999990212793445, "is": -107.9997885963384, "patsy": 0.999998042558689, "10650": 5.999988255352134, "asmnxvvz": 1.999996085117378, "feb": -7.999984340469512, "feu": 0.999998042558689, "multitude": -9.99998042558689, "countersink": 0.999998042558689, "nursing": 14.999970638380335, "stipend": -0.999998042558689, "2585": 0.999998042558689, "plenitudehoneydew": 5.999988255352134, "forrest": 3.999992170234756, "howards": -1.999996085117378, "5300": -0.999998042558689, "2181": 0.999998042558689, "mill": -0.999998042558689, "helm": 3.999992170234756, "sumeria": 1.999996085117378, "xosyk": 0.999998042558689, "csdcgbvuokejisroaqtckf": 0.999998042558689, "underlie": -6.999986297910823, "vaolatility": 3.999992170234756, "istanbul": 1.999996085117378, "slang": 1.999996085117378, "pianisms": 1.999996085117378, "wifeless": 0.999998042558689, "tighter": 13.999972595821646, "maoi": 0.999998042558689, "wyrzv": 0.999998042558689, "sang": -0.999998042558689, "engberg": -1.999996085117378, "excluding": 14.999970638380335, "smooth": 8.9999823830282, "tca": -0.999998042558689, "jxywt": 0.999998042558689, "offal": 0.999998042558689, "fruitionweatherbeaten": 3.999992170234756, "autisticcede": 0.999998042558689, "sijbmhiuabr": 0.999998042558689, "loaneon": 1.999996085117378, "sunburnt": 0.999998042558689, "crowne": -0.999998042558689, "2280": 0.999998042558689, "superlative": 0.999998042558689, "vlady": -3.999992170234756, "ambulate": 0.999998042558689, "wavefrtl": 4.999990212793445, "valuables": 3.999992170234756, "worms": 5.999988255352134, "injurious": 0.999998042558689, "856": -30.99993931931936, "staking": 2.999994127676067, "7754": -1.999996085117378, "synopses": 1.999996085117378, "arranged": 0.0, "paranoiac": 1.999996085117378, "512": 124.99975531983613, "graeca": 0.999998042558689, "tenure": 0.0, "zipcode": 5.999988255352134, "carolina": 50.99990017049314, "kirticritgh": 1.999996085117378, "2481611": -2.999994127676067, "mouth": 25.999949106525914, "cloudburst": 6.999986297910823, "formats": 27.99994519164329, "xsxupevt": 0.999998042558689, "5161": 0.999998042558689, "physical": -1.999996085117378, "resonant": -0.999998042558689, "sqeirzyn": 0.999998042558689, "lexical": 3.999992170234756, "asinine": 0.999998042558689, "comgauchonet": 0.999998042558689, "boones": -1.999996085117378, "veritable": 6.999986297910823, "uquosfohun": 0.999998042558689, "latent": 0.999998042558689, "ljgfuol": 0.999998042558689, "eicvjzeeyj": 1.999996085117378, "bakelite": 2.999994127676067, "cftdzumc": 0.999998042558689, "bjectives": 0.999998042558689, "jeni": -1.999996085117378, "fi": 8.9999823830282, "childish": 0.999998042558689, "tavern": 0.999998042558689, "milwaukee": -21.99995693629116, "pledging": -0.999998042558689, "transco": -16.999966723497714, "elkhart": 3.999992170234756, "riverboat": -0.999998042558689, "34327": -0.999998042558689, "workout": -1.999996085117378, "ngei": 0.999998042558689, "oncolgy": 1.999996085117378, "logistics": -48.99990408537576, "rotenberg": -0.999998042558689, "parking": -10.99997846814558, "relativistic": -1.999996085117378, "xjapn": 0.999998042558689, "dkpprix": 2.999994127676067, "hemphill": 0.999998042558689, "tamara": -5.999988255352134, "57515": 0.999998042558689, "heterostructure": 4.999990212793445, "adsero": 20.99995889373247, "kxslspekh": 0.999998042558689, "blizzards": -0.999998042558689, "controllerfootstool": 3.999992170234756, "ngpl": -0.999998042558689, "terrorism": 10.99997846814558, "874": 4.999990212793445, "wadey": -0.999998042558689, "xvvon": 0.999998042558689, "unimaginative": 8.9999823830282, "insidefinancial": 0.999998042558689, "greenbriar": 0.999998042558689, "cortex": 2.999994127676067, "travis": 8.9999823830282, "pev": 0.999998042558689, "wybrzeza": -4.999990212793445, "rooks": 1.999996085117378, "dinkins": -3.999992170234756, "aff": 0.999998042558689, "deliberate": -0.999998042558689, "9233": -0.999998042558689, "couples": 2.999994127676067, "channel": -8.9999823830282, "535": -10.99997846814558, "edc": 5.999988255352134, "postponing": -0.999998042558689, "carbgn": -2.999994127676067, "industries": 1.999996085117378, "leaking": 2.999994127676067, "dass": 0.999998042558689, "banish": 7.999984340469512, "enrbe": 0.999998042558689, "achieves": -0.999998042558689, "zivley": -3.999992170234756, "703": -11.999976510704268, "rustlers": 1.999996085117378, "exacter": 1.999996085117378, "assuring": 0.999998042558689, "submissions": 10.99997846814558, "shaematocryal": 0.999998042558689, "biface": 1.999996085117378, "fleevouch": 3.999992170234756, "budgets": -1.999996085117378, "overdyke": -2.999994127676067, "niej": -6.999986297910823, "want": 108.9997866388971, "a": 41.99991778746494, "possemen": 5.999988255352134, "gerry": -0.999998042558689, "comorsend": 2.999994127676067, "bridges": -16.999966723497714, "chg": 0.999998042558689, "drew": 13.999972595821646, "mydaily": 0.999998042558689, "tasteful": 0.999998042558689, "rjggvqt": 0.999998042558689, "anomaly": 5.999988255352134, "chair": -21.99995693629116, "probusiness": -11.999976510704268, "because": 141.99972204333383, "recites": -2.999994127676067, "valparaiso": 0.999998042558689, "allowsed": 10.99997846814558, "jubii": 0.999998042558689, "diagram": 4.999990212793445, "zxjcxz": 0.999998042558689, "olinger": -11.999976510704268, "minimum": 15.999968680939023, "shauywn": -1.999996085117378, "himalayas": 4.999990212793445, "proverb": 0.0, "understaning": 5.999988255352134, "uterus": 0.999998042558689, "pohto": 8.9999823830282, "wants": 24.999951063967224, "poulterer": 1.999996085117378, "gumdrop": 0.999998042558689, "ciesze": -0.999998042558689, "partition": 1.999996085117378, "cannabis": 0.999998042558689, "charging": -6.999986297910823, "nemen": 0.999998042558689, "ool": 8.9999823830282, "utzvnk": 0.999998042558689, "148376": -2.999994127676067, "aventine": 0.999998042558689, "spazio": 0.999998042558689, "integrating": 1.999996085117378, "28940": 0.999998042558689, "just": 60.999880596080025, "bechler": 0.999998042558689, "firstworld": -1.999996085117378, "infuse": 1.999996085117378, "pillowslips": 1.999996085117378, "alisave": 17.9999647660564, "strong": 13.999972595821646, "iqitftvig": 3.999992170234756, "170133": -0.999998042558689, "aleksandra": -6.999986297910823, "provinces": 0.999998042558689, "gkcyyg": 2.999994127676067, "ttjiioquf": 0.999998042558689, "rests": 0.0, "qtepsoaf": 1.999996085117378, "powernow": 0.999998042558689, "speakersl": 0.999998042558689, "gelligaer": 0.999998042558689, "seirra": 2.999994127676067, "interracial": 0.999998042558689, "felicitousneater": 0.999998042558689, "opened": -6.999986297910823, "gpicpu": 0.999998042558689, "mermaid": 9.99998042558689, "ibrahimtel": 0.999998042558689, "loads": -5.999988255352134, "shakedown": -0.999998042558689, "getthereplacement": 0.999998042558689, "extrusive": 0.999998042558689, "reaiized": 3.999992170234756, "assignement": -0.999998042558689, "impunity": 1.999996085117378, "tracery": 0.999998042558689, "madina": 0.999998042558689, "cultuare": 10.99997846814558, "hioinfonavigator": 0.999998042558689, "reassure": -0.999998042558689, "esyjd": 0.999998042558689, "deaf": 0.999998042558689, "apple": 17.9999647660564, "corrodent": 0.999998042558689, "slumber": 2.999994127676067, "jeffrey": -6.999986297910823, "486": -1.999996085117378, "concluded": 1.999996085117378, "first": 17.9999647660564, "farm": 0.0, "711": 6.999986297910823, "haynesvilie": 0.999998042558689, "afgczhz": 0.999998042558689, "5505": 2.999994127676067, "vestige": 0.999998042558689, "cumshot": 2.999994127676067, "osvkakk": 2.999994127676067, "useful": -24.999951063967224, "nmqiwszlr": 3.999992170234756, "kane": 3.999992170234756, "nearer": 2.999994127676067, "moves": -3.999992170234756, "options": -211.99958502244206, "zbila": 3.999992170234756, "paste": 36.999927574671496, "pfr": -4.999990212793445, "minotname": 1.999996085117378, "beginners": 0.999998042558689, "salient": 0.999998042558689, "literature": 6.999986297910823, "distinctively": 0.999998042558689, "yqvcgxju": 0.999998042558689, "highs": 12.999974553262957, "uit": 0.999998042558689, "breeds": 0.999998042558689, "unbelievable": 4.999990212793445, "mims": -1.999996085117378, "conerstone": -0.999998042558689, "582": 18.99996280861509, "respectful": 0.0, "blended": -0.999998042558689, "critique": 0.999998042558689, "sulfanilamide": 0.999998042558689, "provincial": 3.999992170234756, "constrain": 1.999996085117378, "lxpsm": 3.999992170234756, "hnleff": 1.999996085117378, "kswkhm": 0.999998042558689, "v\u00b5a": 2.999994127676067, "andnames": 0.999998042558689, "urse": 1.999996085117378, "272": -0.999998042558689, "brunotransit": 5.999988255352134, "pkgd": 1.999996085117378, "collins": -9.99998042558689, "slumped": 0.999998042558689, "59605": -0.999998042558689, "qocaeyng": 2.999994127676067, "2002020504": -0.999998042558689, "antre": 0.999998042558689, "7707": -0.999998042558689, "approved": 97.99980817075152, "marking": 5.999988255352134, "administra??o": 0.999998042558689, "q?": 0.999998042558689, "unwilling": -0.999998042558689, "cctv": 3.999992170234756, "eff": 8.9999823830282, "irxfi": 2.999994127676067, "chicken": 1.999996085117378, "baco": 1.999996085117378, "merging": -0.999998042558689, "p?n?s": 2.999994127676067, "aussie": 0.999998042558689, "inzestspiele": 0.999998042558689, "garage": 3.999992170234756, "niapllhfy": 1.999996085117378, "bellyfull": 3.999992170234756, "unbilled": -15.999968680939023, "elimination": 10.99997846814558, "slkks": 3.999992170234756, "accomplishing": 0.999998042558689, "affiance": 2.999994127676067, "collecting": -3.999992170234756, "baptist": 2.999994127676067, "gastrointestinal": 0.999998042558689, "sxqjax": 0.999998042558689, "lcd": 27.99994519164329, "ssw": 0.999998042558689, "equal": -1.999996085117378, "duffie": -41.99991778746494, "premonitory": 7.999984340469512, "pping": 4.999990212793445, "jm": 11.999976510704268, "continuously": 4.999990212793445, "shiiip": 0.999998042558689, "citratet": 1.999996085117378, "ensemble": 0.999998042558689, "shipping": 29.99994127676067, "mmoceyyzk": 0.999998042558689, "stopping": 8.9999823830282, "abo": 0.999998042558689, "fmjnic": 0.999998042558689, "puffs": 2.999994127676067, "otc": 0.0, "priggish": 2.999994127676067, "naja": 0.999998042558689, "benefits": 30.99993931931936, "caution": -14.999970638380335, "potwierdzam": -2.999994127676067, "garygreene": -13.999972595821646, "baneberry": 1.999996085117378, "celia": 6.999986297910823, "mhdfmp": 0.999998042558689, "m\u00b5a": 2.999994127676067, "mollusk": 1.999996085117378, "displace": 0.999998042558689, "eprm": -45.99990995769969, "cgtmrd": 0.999998042558689, "surcharges": 0.999998042558689, "alsd": 10.99997846814558, "hqnwp": 0.999998042558689, "tyavl": 0.999998042558689, "priices": 1.999996085117378, "abusablemilitate": 3.999992170234756, "gcnmijxm": 0.999998042558689, "alaikom": 0.999998042558689, "goodday": -0.999998042558689, "compusep": 1.999996085117378, "eyed": 6.999986297910823, "blp": 0.999998042558689, "bonner": 3.999992170234756, "wntpb": 3.999992170234756, "underpin": -4.999990212793445, "cantlephysiotherapist": 0.999998042558689, "walton": -8.9999823830282, "groter": 0.999998042558689, "allah": 2.999994127676067, "emotional": 16.999966723497714, "balinese": 4.999990212793445, "spearheading": -0.999998042558689, "157": 76.99984927701905, "685958": -3.999992170234756, "awareness": 15.999968680939023, "wrvydzdunplhogtjyoeqsq": 0.999998042558689, "tend": -15.999968680939023, "edgar": 8.9999823830282, "honey": -9.99998042558689, "listsoft": 0.999998042558689, "minor": 7.999984340469512, "surrounds": -0.999998042558689, "lq": -0.999998042558689, "pxo": 0.999998042558689, "delores": -0.999998042558689, "jbb": 0.999998042558689, "sobriety": 2.999994127676067, "snow": 6.999986297910823, "njsfz": 2.999994127676067, "widening": -0.999998042558689, "xutian": 1.999996085117378, "benefice": 3.999992170234756, "depositary": 4.999990212793445, "maintaining": -4.999990212793445, "coattail": 1.999996085117378, "intellinet": 26.9999471490846, "cher": 0.999998042558689, "012603": 0.999998042558689, "00317": 1.999996085117378, "brazoria": -0.999998042558689, "courageous": 2.999994127676067, "rhetoric": 1.999996085117378, "peking": 0.999998042558689, "rekkeaz": 0.999998042558689, "lev": 2.999994127676067, "speculative": 41.99991778746494, "dihedral": 0.999998042558689, "dhartman": -0.999998042558689, "oradder": 0.999998042558689, "bandwidth": -19.99996085117378, "pest": 0.999998042558689, "cataclasis": 0.999998042558689, "swelling": 6.999986297910823, "viceroy": 0.999998042558689, "knowles": 0.999998042558689, "grade": -15.999968680939023, "5853": -7.999984340469512, "offset": -2.999994127676067, "ywipb": 0.999998042558689, "pzdrawiam": -8.9999823830282, "pactwmtnfbiiw": 6.999986297910823, "kennel": 0.999998042558689, "jezeli": -2.999994127676067, "7861": -0.999998042558689, "debated": 1.999996085117378, "pkndp": 2.999994127676067, "westfield": 1.999996085117378, "polariscope": 1.999996085117378, "seattle": -5.999988255352134, "eponym": 0.999998042558689, "aristocrat": 0.999998042558689, "disclosed": 6.999986297910823, "christians": 2.999994127676067, "eosine": 1.999996085117378, "discretion": 0.999998042558689, "tastyllemo": 0.999998042558689, "atavistic": 1.999996085117378, "verdi": 0.999998042558689, "chadwick": 0.999998042558689, "craven": 0.999998042558689, "cross": 0.999998042558689, "webmail": 7.999984340469512, "seizewd": 0.999998042558689, "onenote": 0.999998042558689, "mhstbf": 0.999998042558689, "deeplook": 0.999998042558689, "berlin": 3.999992170234756, "imminent": 0.999998042558689, "busi": 4.999990212793445, "zustellstatus": 0.999998042558689, "perilous": 0.999998042558689, "zakopanem": -3.999992170234756, "vvgwa": 0.999998042558689, "wesneske": -1.999996085117378, "easiely": 5.999988255352134, "expre": 0.999998042558689, "eyo": 3.999992170234756, "regal": 1.999996085117378, "presentabie": 9.99998042558689, "exchaange": 3.999992170234756, "considers": -1.999996085117378, "tencel": -4.999990212793445, "pmibnn": 10.99997846814558, "arena": 20.99995889373247, "buteo": 1.999996085117378, "nielson": 1.999996085117378, "\u009d": 19.99996085117378, "harry": 4.999990212793445, "ubyomv": 0.999998042558689, "wordy": 1.999996085117378, "fireproof": 4.999990212793445, "bodily": 0.999998042558689, "greenfield": 0.999998042558689, "diversification": -0.999998042558689, "fqpzm": 0.999998042558689, "balaganu": -0.999998042558689, "1658245": -3.999992170234756, "comedian": 1.999996085117378, "fade": 9.99998042558689, "xnmnurvno": 0.999998042558689, "crave": 8.9999823830282, "superior": -14.999970638380335, "cont?m": 0.999998042558689, "kokura": 0.999998042558689, "quarrymen": 3.999992170234756, "concretion": 20.99995889373247, "efthimiop": 0.999998042558689, "speedomission": 0.999998042558689, "rising": 24.999951063967224, "silurian": 1.999996085117378, "davidp": 10.99997846814558, "747672": 6.999986297910823, "formas": -2.999994127676067, "cherry": -2.999994127676067, "triple": 8.9999823830282, "datelineenvelop": 5.999988255352134, "commencement": 6.999986297910823, "chr": 18.99996280861509, "fucks": 0.999998042558689, "failure": 54.9998923407279, "officers": -4.999990212793445, "qkvjdlxiu": 0.999998042558689, "showcase": 36.999927574671496, "declining": -2.999994127676067, "eogresources": -0.999998042558689, "dwl": 6.999986297910823, "ragged": 1.999996085117378, "bantus": 3.999992170234756, "tdp": 11.999976510704268, "harassing": 1.999996085117378, "routings": 3.999992170234756, "cbyox": 3.999992170234756, "ytattletale": 0.999998042558689, "figure": -8.9999823830282, "crmexicomexico": 0.999998042558689, "wjwib": 0.999998042558689, "nexen": 0.999998042558689, "transferred": 20.99995889373247, "allsoftbest": 3.999992170234756, "mikel": 1.999996085117378, "cortical": 0.999998042558689, "vvatch": 2.999994127676067, "selectivity": 0.999998042558689, "polluted": -1.999996085117378, "inexpedient": 3.999992170234756, "cokinos": -3.999992170234756, "valliium": 0.999998042558689, "learnings": -0.999998042558689, "bross": 5.999988255352134, "alveolus": 1.999996085117378, "examining": 0.0, "keilty": -0.999998042558689, "cse": 2.999994127676067, "nerc": -16.999966723497714, "rrcs": 1.999996085117378, "romjr": 6.999986297910823, "passes": 7.999984340469512, "hurry": 23.999953021408537, "registrations": 0.999998042558689, "podmiotu": -2.999994127676067, "ciaiis": 20.99995889373247, "trianon": 1.999996085117378, "svcs": 0.999998042558689, "nettvik": 0.999998042558689, "xlrzbql": 1.999996085117378, "demottnow": -3.999992170234756, "movress": 1.999996085117378, "1775": 2.999994127676067, "insulting": -1.999996085117378, "weglein": -5.999988255352134, "ootussle": 1.999996085117378, "fernando": -1.999996085117378, "cantorcarefree": 4.999990212793445, "programmable": 2.999994127676067, "cicutoxin": 1.999996085117378, "medsplanet": 1.999996085117378, "year": -175.99965549032927, "degradedly": 1.999996085117378, "drainya": 0.999998042558689, "spqbyq": 0.999998042558689, "4410": 4.999990212793445, "impassive": 1.999996085117378, "distinguish": 0.999998042558689, "cheaply": 0.0, "print": -53.9998942981692, "1308": 0.999998042558689, "lottie": 4.999990212793445, "fffont": 9.99998042558689, "cautionary": 5.999988255352134, "denial": -1.999996085117378, "lci": 11.999976510704268, "formalized": -0.999998042558689, "advise": -27.99994519164329, "djakarta": 0.999998042558689, "hikers": 0.999998042558689, "sqppmnts": 1.999996085117378, "lust": 2.999994127676067, "erasmus": 1.999996085117378, "tnoos": 1.999996085117378, "totem": -2.999994127676067, "niewlasciwa": -0.999998042558689, "phd": -49.99990212793445, "catkin": 3.999992170234756, "reconnaissance": 1.999996085117378, "attempted": -25.999949106525914, "139674": -1.999996085117378, "aofarachain": 13.999972595821646, "standpointcut": 5.999988255352134, "328": 2.999994127676067, "hadron": 0.999998042558689, "scrutable": 2.999994127676067, "stodgy": 2.999994127676067, "00353": 0.999998042558689, "matter": 29.99994127676067, "spaminfo": 0.999998042558689, "lmb": 3.999992170234756, "hrycaq": 0.999998042558689, "s\u00b5b": 2.999994127676067, "4178": 0.999998042558689, "sickness": 1.999996085117378, "nlyr": 1.999996085117378, "cobalt": -1.999996085117378, "aldrichleverage": 0.999998042558689, "destinations": 2.999994127676067, "counterclockwise": 2.999994127676067, "$": 131.99974161774693, "conformation": 1.999996085117378, "oratoric": 2.999994127676067, "natomiast": -6.999986297910823, "accomplished": -2.999994127676067, "landing": -0.999998042558689, "wfcqngj": 2.999994127676067, "brazos": -1.999996085117378, "ltd": 21.99995693629116, "cheered": 2.999994127676067, "moduli": 0.999998042558689, "astros": -16.999966723497714, "6820014": -3.999992170234756, "wwaededbd": 2.999994127676067, "postoffice": -1.999996085117378, "projections": 31.999937361878047, "obscure": -16.999966723497714, "sogei": 4.999990212793445, "osd": 0.999998042558689, "stijff": 0.999998042558689, "shakeout": -23.999953021408537, "drs": -2.999994127676067, "viewed": 0.999998042558689, "azijia": 0.999998042558689, "martworld": 0.999998042558689, "tadyw": 0.999998042558689, "sprl": 0.999998042558689, "hick": -1.999996085117378, "desired": 2.999994127676067, "quick": 69.99986297910823, "archimedes": 1.999996085117378, "commingle": 0.999998042558689, "console": 0.999998042558689, "beloved": -0.999998042558689, "0477": -2.999994127676067, "url": -196.99961438406174, "pix": -0.999998042558689, "thesepowerfui": 7.999984340469512, "jmartinbiosketch": -1.999996085117378, "ydcmo": 0.999998042558689, "woman": 25.999949106525914, "housework": 0.999998042558689, "ovate": 1.999996085117378, "dnisew": 2.999994127676067, "alexandra": 0.999998042558689, "arialcenterclick": 2.999994127676067, "pay": 62.99987668119741, "taoist": 1.999996085117378, "adults": 18.99996280861509, "memorial": -8.9999823830282, "mbits": 4.999990212793445, "stipple": 1.999996085117378, "pigskin": 2.999994127676067, "morphology": 0.999998042558689, "lotz": -1.999996085117378, "fixtureannotate": 0.999998042558689, "abideth": 0.999998042558689, "paranormal": 2.999994127676067, "bleekerisocline": 1.999996085117378, "inestimable": 1.999996085117378, "pdq": -6.999986297910823, "greeley": 2.999994127676067, "loment": 0.999998042558689, "nnels": 0.999998042558689, "167": 0.0, "berry": -0.999998042558689, "bkd": 0.999998042558689, "revolutionizer": 2.999994127676067, "albumin": 2.999994127676067, "lrgs": 0.999998042558689, "persa": 0.999998042558689, "intuition": -0.999998042558689, "zh": 0.999998042558689, "check": -25.999949106525914, "jarvis": 1.999996085117378, "matlab": -4.999990212793445, "dkfoac": 0.999998042558689, "sw": -31.999937361878047, "048": -2.999994127676067, "uidio": 2.999994127676067, "fuels": -14.999970638380335, "room": -57.999886468403965, "eprocurement": -6.999986297910823, "caramelstephanotis": 0.999998042558689, "exploration": -8.9999823830282, "erp": 79.99984340469511, "engage": -20.99995889373247, "tools": 30.99993931931936, "perviagra": 0.999998042558689, "esbr": 0.999998042558689, "nitbmsphi": 0.999998042558689, "needham": 0.999998042558689, "agfa": -37.99992561723018, "lows": 12.999974553262957, "701": 0.999998042558689, "yttrium": 0.999998042558689, "retrofits": -2.999994127676067, "fokg": 0.999998042558689, "grooved": 2.999994127676067, "wmeon": 1.999996085117378, "zeus": 7.999984340469512, "tasmania": 1.999996085117378, "synchronizing": 17.9999647660564, "levltrsome": 0.999998042558689, "dolalrs": -1.999996085117378, "fixings": -1.999996085117378, "assignation": 3.999992170234756, "kaul": -2.999994127676067, "gather": -6.999986297910823, "bestselling": -0.999998042558689, "kinscrumptious": 0.999998042558689, "censure": 9.99998042558689, "iconoclasm": 1.999996085117378, "wlle": 0.999998042558689, "royoatmeal": 0.999998042558689, "owxseicq": 0.999998042558689, "bujumbura": 2.999994127676067, "ontvanger": 0.999998042558689, "sickroom": 2.999994127676067, "castiglione": 0.999998042558689, "hook": 22.999954978849846, "shepherds": 1.999996085117378, "sorrow": 6.999986297910823, "gar?on": 2.999994127676067, "intelligentsia": 0.999998042558689, "leaden": 1.999996085117378, "retroscreen": 1.999996085117378, "1890": 4.999990212793445, "aquadrumanous": 0.999998042558689, "reaches": -22.999954978849846, "nose": -0.999998042558689, "thoroughbred": 5.999988255352134, "bowdoin": 1.999996085117378, "bombardtrichrome": 0.999998042558689, "arvind": -0.999998042558689, "mexeridleia": 0.999998042558689, "documenting": -5.999988255352134, "orgaasms": 1.999996085117378, "sagjmjqg": 0.999998042558689, "psmbartt": 1.999996085117378, "offsets": -1.999996085117378, "club": -62.99987668119741, "agate": 3.999992170234756, "ferromagnet": 0.999998042558689, "alexmann": -5.999988255352134, "bookcase": 1.999996085117378, "petrocehmical": -0.999998042558689, "redactorvivacity": 4.999990212793445, "nashville": 3.999992170234756, "burke": -5.999988255352134, "keg": -0.999998042558689, "smosoqr": 1.999996085117378, "meetinghouse": 4.999990212793445, "enticesequate": 0.999998042558689, "cnbsz": 0.999998042558689, "huffman": 5.999988255352134, "abortive": 2.999994127676067, "urgent": 24.999951063967224, "332": -19.99996085117378, "supporter": -1.999996085117378, "crum": -1.999996085117378, "bauxite": 9.99998042558689, "dobbin": -5.999988255352134, "revelatory": 0.999998042558689, "worldexpos": 6.999986297910823, "91237": 0.999998042558689, "ibt": 1.999996085117378, "effectiveness": -14.999970638380335, "503": -18.99996280861509, "178": 5.999988255352134, "neapolitan": 0.999998042558689, "slots": -11.999976510704268, "parents": -1.999996085117378, "aw": 2.999994127676067, "prescheduling": -1.999996085117378, "xaablvb": 0.999998042558689, "unitaires": 0.999998042558689, "fozziesugar": 0.999998042558689, "warnings": 0.0, "ppers": 0.999998042558689, "descript": 0.999998042558689, "collaboration": 17.9999647660564, "boeotian": 1.999996085117378, "dustin": -1.999996085117378, "qwpfww": 0.999998042558689, "philipe": 6.999986297910823, "sears": -44.999911915141006, "uaewww": 0.999998042558689, "531": -12.999974553262957, "beatrice": 0.999998042558689, "divalent": 2.999994127676067, "reflection": -1.999996085117378, "antl": 0.999998042558689, "49": -18.99996280861509, "hatreds": 0.999998042558689, "cybernetics": 0.999998042558689, "hypochlorousdifluoride": 1.999996085117378, "2010": -0.999998042558689, "bundled": -4.999990212793445, "tcwpt": 0.999998042558689, "teradex": 0.999998042558689, "xvpwlq": 3.999992170234756, "waldo": 3.999992170234756, "trustees": -3.999992170234756, "no": 224.99955957570504, "lafayette": 3.999992170234756, "scour": 0.999998042558689, "wherever": 0.999998042558689, "ubiquitous": 2.999994127676067, "980070": -1.999996085117378, "drrugs": 0.999998042558689, "accra": 4.999990212793445, "kilo": 1.999996085117378, "besonderes": 0.999998042558689, "gallivant": 0.999998042558689, "aptness": 3.999992170234756, "jgsmukpuj": 2.999994127676067, "outthought": 0.999998042558689, "lmw": 0.999998042558689, "mbps": 5.999988255352134, "ram": -60.999880596080025, "1288": 0.999998042558689, "approving": -0.999998042558689, "exposures": -4.999990212793445, "creative": 78.99984536213643, "phipps": 0.999998042558689, "benchmark": 0.999998042558689, "jochenfechtel": 0.999998042558689, "concocter": 1.999996085117378, "ilafricaregional": 0.999998042558689, "snark": 2.999994127676067, "punctually": 4.999990212793445, "mvqmfy": 3.999992170234756, "fcxqlvmwd": 0.999998042558689, "turorials": 4.999990212793445, "deborah": -2.999994127676067, "europe": 57.999886468403965, "anarch": 1.999996085117378, "2270": 6.999986297910823, "section": 78.99984536213643, "modulo": 1.999996085117378, "smuttiest": 3.999992170234756, "aberrational": 0.999998042558689, "5500": 0.0, "management": -97.99980817075152, "lnvjsm": 3.999992170234756, "448443": -1.999996085117378, "kimberly": -10.99997846814558, "spencer": -7.999984340469512, "blocky": 8.9999823830282, "anotther": 0.999998042558689, "crabtree": 0.999998042558689, "qegoku": 2.999994127676067, "hague": 1.999996085117378, "advises": 1.999996085117378, "0182": -1.999996085117378, "moaunt": 10.99997846814558, "stories": 